<?xml version="1.0"?>
<opencv_storage>
<DigitOCR type_id="opencv-ml-ann-mlp">
  <layer_sizes type_id="opencv-matrix">
    <rows>1</rows>
    <cols>3</cols>
    <dt>i</dt>
    <data>
      256 64 36</data></layer_sizes>
  <activation_function>SIGMOID_SYM</activation_function>
  <f_param1>5.9999999999999998e-01</f_param1>
  <f_param2>1.</f_param2>
  <min_val>-9.4999999999999996e-01</min_val>
  <max_val>9.4999999999999996e-01</max_val>
  <min_val1>-9.7999999999999998e-01</min_val1>
  <max_val1>9.7999999999999998e-01</max_val1>
  <training_params>
    <train_method>BACKPROP</train_method>
    <dw_scale>1.0000000000000001e-01</dw_scale>
    <moment_scale>1.0000000000000001e-01</moment_scale>
    <term_criteria><epsilon>9.9999999747524271e-07</epsilon>
      <iterations>1000</iterations></term_criteria></training_params>
  <input_scale>
    7.1158944789560907e+00 -1.4342112903322354e-01
    4.4468750512136799e+00 -2.3756884156031738e-01
    3.3276087199908200e+00 -3.3405064282078384e-01
    2.9226873053032687e+00 -3.9573337157077848e-01
    2.6548176187955899e+00 -4.5447459236487808e-01
    2.4026124005534641e+00 -5.3562114950323025e-01
    2.2337455126609260e+00 -6.1947477298794285e-01
    2.1626656750049067e+00 -6.6989547232871627e-01
    2.1588424608841885e+00 -6.7303447779244796e-01
    2.2208674872582188e+00 -6.2766765224513621e-01
    2.3500040166667824e+00 -5.5805004943585867e-01
    2.5861511844069001e+00 -4.7329239699126280e-01
    2.7366096737221466e+00 -4.3435723309659657e-01
    3.1909293294702503e+00 -3.5228024703260064e-01
    4.1401814422774992e+00 -2.5755779902540255e-01
    6.5126901281810392e+00 -1.5734793978938688e-01
    3.3059847682305232e+00 -3.3679185914079685e-01
    2.1153511167996815e+00 -7.1317942368071940e-01
    2.0101544845485302e+00 -1.1059745313242784e+00
    2.1022027696473020e+00 -1.3748514754463363e+00
    2.1589648441193692e+00 -1.4860316804968914e+00
    2.1416345490018278e+00 -1.4537658811958145e+00
    2.1945417380486312e+00 -1.5489381802273476e+00
    2.2842027639932740e+00 -1.6938219333255033e+00
    2.2772045189183068e+00 -1.6830424354615210e+00
    2.1793745267741333e+00 -1.5226056529109981e+00
    2.1454111659019910e+00 -1.4609030426209875e+00
    2.0999992112858239e+00 -1.3701545241593553e+00
    2.0000368744715522e+00 -1.0060909006143397e+00
    2.0685461624097443e+00 -7.7022610336755604e-01
    2.3874772170349292e+00 -5.4180926766432214e-01
    3.3664486930418036e+00 -3.2925086054685337e-01
    2.5131846879399249e+00 -4.9565586901037406e-01
    2.0326643044544110e+00 -1.1978012781158356e+00
    2.3158193248480941e+00 -1.7416517170466093e+00
    2.7434221338514098e+00 -2.3106419755267882e+00
    3.0270713260435880e+00 -2.6496651465045620e+00
    2.3638761027314850e+00 -1.8119996017449485e+00
    2.3150112169729824e+00 -1.7404457715201271e+00
    2.3432363257345710e+00 -1.7821008567747483e+00
    2.3350893245758200e+00 -1.7701726888822513e+00
    2.4665854127667255e+00 -1.9551035539178114e+00
    2.4252506391691795e+00 -1.8985263078457442e+00
    2.6608083347760623e+00 -2.2078865025968035e+00
    2.1807062142978020e+00 -1.5249447525693609e+00
    2.0110151778406564e+00 -9.0040996108614924e-01
    2.2204063784265480e+00 -6.2796764371779246e-01
    3.1572460660937267e+00 -3.5712776884561470e-01
    2.6648346209961220e+00 -4.5188571576969122e-01
    2.0671674714296868e+00 -1.2949175045512711e+00
    2.5801612651187624e+00 -2.1051315748352692e+00
    2.8798398174534627e+00 -2.4759553055870889e+00
    3.0656384167998345e+00 -2.6945139728022318e+00
    2.3526535754214803e+00 -1.7957981038230111e+00
    2.1167505152100619e+00 -1.4050136656190817e+00
    2.0175264257079464e+00 -1.1414403382655165e+00
    2.0137208980774788e+00 -1.1241974160972592e+00
    2.0578281614142009e+00 -1.2711209870440949e+00
    2.1186665903559039e+00 -1.4088859096333124e+00
    2.1844711081204511e+00 -1.5315287426635178e+00
    2.1016491379382591e+00 -1.3736748047583531e+00
    2.0052177519078151e+00 -1.0748899809645380e+00
    2.1836598358047765e+00 -6.5354625447568027e-01
    3.6690625175932388e+00 -2.9651144764270937e-01
    2.7824253290513470e+00 -4.2401429917520200e-01
    2.0724774864667066e+00 -1.3078832406520193e+00
    2.3036755234045199e+00 -1.7234409713532135e+00
    2.4993947301360686e+00 -1.9991928648930750e+00
    2.4856644856792274e+00 -1.9808241017660819e+00
    2.1172528551872505e+00 -1.4060309658478640e+00
    2.0003414297446671e+00 -9.8169210864148804e-01
    2.0455911438990664e+00 -8.0806135949242830e-01
    2.0691314822143840e+00 -7.6937472943320384e-01
    2.0049949131986011e+00 -9.3177864376942743e-01
    2.0513523508935685e+00 -1.2537367307366958e+00
    2.0773165319997124e+00 -1.3193912236835381e+00
    2.0399342995072267e+00 -1.2207978908678907e+00
    2.0069157007134075e+00 -1.0866904007351281e+00
    2.0825829836156071e+00 -7.5096758491875448e-01
    3.7030309680713391e+00 -2.9327622524906083e-01
    2.7196605670701905e+00 -4.3834322447287627e-01
    2.0607850452905963e+00 -1.2788049835311026e+00
    2.2028125542927057e+00 -1.5630292697901214e+00
    2.4609435444216272e+00 -1.9474520942613007e+00
    2.3848444257370107e+00 -1.8419379815317636e+00
    2.0915600988450151e+00 -1.3518125832651406e+00
    2.0007225702142941e+00 -9.7347819114044332e-01
    2.0366630588567518e+00 -8.2598001831412715e-01
    2.0656623059763470e+00 -7.7448992402368977e-01
    2.0051802705147885e+00 -9.3056944853864598e-01
    2.0349332073270623e+00 -1.2051852483704462e+00
    2.0503657470057117e+00 -1.2510145013222835e+00
    2.0342836898938113e+00 -1.2030921951536073e+00
    2.0025176826666078e+00 -1.0514511450073765e+00
    2.0666635791410077e+00 -7.7299626119033815e-01
    3.4246856455569330e+00 -3.2233636857729014e-01
    2.6414511589606744e+00 -4.5798804332367249e-01
    2.0245623932466863e+00 -1.1694855891738933e+00
    2.1513762586012128e+00 -1.4720527991669281e+00
    2.3827018706515166e+00 -1.8388978842812447e+00
    2.3469339680647501e+00 -1.7874904059097807e+00
    2.0913008659331767e+00 -1.3512397455467464e+00
    2.0408578292334236e+00 -1.2235918290126231e+00
    2.0159597085967325e+00 -1.1345633708846727e+00
    2.0310868568835674e+00 -1.1925418890319603e+00
    2.0625023603574406e+00 -1.2832015654135989e+00
    2.0804840015846167e+00 -1.3267789446798022e+00
    2.0672396335998982e+00 -1.2950962510756983e+00
    2.0522869734257907e+00 -1.2562965994950124e+00
    2.0018759376105146e+00 -9.5761571821743285e-01
    2.0848791358153651e+00 -7.4802446513685650e-01
    3.0841833208979432e+00 -3.6818932668083970e-01
    2.6866184683758707e+00 -4.4638131141232162e-01
    2.0034800070660910e+00 -1.0607572440512714e+00
    2.1282239533373479e+00 -1.4278897919484299e+00
    2.3233743600576497e+00 -1.7528868960667501e+00
    2.3423710818210166e+00 -1.7808375492216759e+00
    2.1201931041466984e+00 -1.4119554722641030e+00
    2.1049045886174294e+00 -1.3805617757256305e+00
    2.1069831053879047e+00 -1.3849194507313909e+00
    2.1053747834788092e+00 -1.3815501970657458e+00
    2.2580392893760393e+00 -1.6531239836239440e+00
    2.3258560030407631e+00 -1.7565621790406696e+00
    2.2810551634544844e+00 -1.6889828348524096e+00
    2.2016572830621124e+00 -1.5610717273184591e+00
    2.0018092512219789e+00 -1.0434495379916118e+00
    2.0662334003128895e+00 -7.7363622662877951e-01
    2.9883502222706384e+00 -3.8396825530337853e-01
    2.8085520395677301e+00 -4.1837990977023165e-01
    2.0003133727838458e+00 -9.8245365460436562e-01
    2.0976448608973923e+00 -1.3650952408708223e+00
    2.2258296937557809e+00 -1.6013608074520758e+00
    2.2834596880980800e+00 -1.6926808734447976e+00
    2.1613020922276589e+00 -1.4902931868500020e+00
    2.1296124142370347e+00 -1.4306097865407574e+00
    2.1497230917000558e+00 -1.4689774459950382e+00
    2.1446046500928859e+00 -1.4593840687389186e+00
    2.3044601702410583e+00 -1.7246234542792418e+00
    2.3105964182919085e+00 -1.7338428937260213e+00
    2.3712163633278736e+00 -1.8225279257671216e+00
    2.1941205005028932e+00 -1.5482156477385727e+00
    2.0078095278164172e+00 -1.0923625221750559e+00
    2.0657335381219921e+00 -7.7438318615774671e-01
    2.9023839579799229e+00 -3.9954652548160308e-01
    3.0263990925933015e+00 -3.7751787130475872e-01
    2.0023389590130756e+00 -9.5279255633658366e-01
    2.0724021372262746e+00 -1.3077018137226262e+00
    2.1652902956528739e+00 -1.4975192445258183e+00
    2.2742982789003094e+00 -1.6785437878834650e+00
    2.0983656567396491e+00 -1.3666487436207455e+00
    2.0760703172995014e+00 -1.3164538911248000e+00
    2.0700148360924349e+00 -1.3019163077645961e+00
    2.0586931243043622e+00 -1.2733841514996298e+00
    2.0781801696024633e+00 -1.3214164993150548e+00
    2.1497230917000558e+00 -1.4689774459950382e+00
    2.2046998593175093e+00 -1.5662199194389310e+00
    2.1097613790481691e+00 -1.3906980046387285e+00
    2.0153022079380798e+00 -1.1315895860076093e+00
    2.0207368218112971e+00 -8.6599276976073292e-01
    2.7737735017966800e+00 -4.2592116368027833e-01
    3.6838769821245831e+00 -2.9509092104873919e-01
    2.0069590818102965e+00 -9.1998589434921596e-01
    2.0496327641874639e+00 -1.2489784150245702e+00
    2.1579875348408741e+00 -1.4842437521609035e+00
    2.2692690620783837e+00 -1.6707273579139108e+00
    2.1072684811890676e+00 -1.3855154135363263e+00
    2.0216613887915522e+00 -1.1584067518463221e+00
    2.0000140384334335e+00 -9.9626022289148619e-01
    2.0031224946913571e+00 -9.4566015447057084e-01
    2.0001947282733838e+00 -1.0140522110781343e+00
    2.0385440258700318e+00 -1.2165419709940153e+00
    2.1741149531781412e+00 -1.5133132183781959e+00
    2.1238028188055762e+00 -1.4191612634189199e+00
    2.0401505664855928e+00 -1.2214544864462840e+00
    2.0021308267223015e+00 -9.5489224119449301e-01
    2.8005601680560197e+00 -4.2008402520840293e-01
    4.7205919416439714e+00 -2.2230694608904747e-01
    2.0323261995185140e+00 -8.3564316924646909e-01
    2.0622257642719406e+00 -1.2824966041760963e+00
    2.1550795899838509e+00 -1.4789024860722513e+00
    2.2425223192329717e+00 -1.6284362655360358e+00
    2.2170461726223065e+00 -1.5868780098614443e+00
    2.0173177529803490e+00 -1.1405403730028432e+00
    2.0110701619200602e+00 -9.0017475141757730e-01
    2.0444383547642855e+00 -8.1024737121956658e-01
    2.0096603807098465e+00 -9.0642433967158587e-01
    2.0692782595734180e+00 -1.3001163018482600e+00
    2.1966575424589054e+00 -1.5525600886332611e+00
    2.1595777031078254e+00 -1.4871510539489288e+00
    2.0913872280200603e+00 -1.3514306487005596e+00
    2.0000013520835775e+00 -1.0011634675255583e+00
    2.9967207262913242e+00 -3.8252714180566261e-01
    6.0782491800348870e+00 -1.6923290675678529e-01
    2.1654159821552450e+00 -6.6766992783120060e-01
    2.0610579929085775e+00 -1.2795069322901440e+00
    2.1797733230234022e+00 -1.5233067059733312e+00
    2.2997764583875484e+00 -1.7175526896265145e+00
    2.3103969371378632e+00 -1.7335439550940750e+00
    2.0772382972939356e+00 -1.3192073450062454e+00
    2.0021789223429627e+00 -1.0477811014147509e+00
    2.0000451377043915e+00 -9.9330407097360218e-01
    2.0258706803347648e+00 -1.1742982955196284e+00
    2.2104367138736278e+00 -1.5758643135858759e+00
    2.3365779274660663e+00 -1.7723577535081751e+00
    2.2055751129458532e+00 -1.5676965741436191e+00
    2.1528027937078531e+00 -1.4746977276794622e+00
    2.0061175994472289e+00 -9.2478392698032463e-01
    3.2183366717167012e+00 -3.4844523655020615e-01
    6.1982887509232185e+00 -1.6576818752469072e-01
    2.3372175714058501e+00 -5.6392168147292321e-01
    2.0167676334814701e+00 -1.1381448350190002e+00
    2.2074806213540823e+00 -1.5709048142659283e+00
    2.3170346322953312e+00 -1.7434637853343680e+00
    2.3109956901762225e+00 -1.7344410806503456e+00
    2.1732054826439366e+00 -1.5116974571776427e+00
    2.1270565216852968e+00 -1.4255950524861083e+00
    2.1283304202240214e+00 -1.4280987128466998e+00
    2.1570142319516492e+00 -1.4824595874504907e+00
    2.2324655044537964e+00 -1.6121919815432164e+00
    2.4136666471364037e+00 -1.8824416945011500e+00
    2.3209081563905589e+00 -1.7492270969385433e+00
    2.0896692514217960e+00 -1.3476206806811233e+00
    2.0389156984389567e+00 -8.2122993409346867e-01
    3.3546277114365659e+00 -3.3069521238063310e-01
    5.7230990004640967e+00 -1.8041810802496633e-01
    2.6820347674046849e+00 -4.4752556874717714e-01
    2.0460568092665707e+00 -8.0718791564541004e-01
    2.0269519264594882e+00 -1.1781985422663097e+00
    2.1562868756359039e+00 -1.4811239243305274e+00
    2.1193774406570389e+00 -1.4103169907111215e+00
    2.1054689771176132e+00 -1.3817480192853897e+00
    2.1624171791245206e+00 -1.4923192974539570e+00
    2.1536390228259661e+00 -1.4762444232045431e+00
    2.1330709359866145e+00 -1.4373425667491200e+00
    2.1017412826564392e+00 -1.3738708035659244e+00
    2.0434146864484801e+00 -1.2311969496450244e+00
    2.0024020295289722e+00 -1.0502262324125144e+00
    2.0308514904961514e+00 -8.3910375537554160e-01
    2.2984212439151057e+00 -5.8292001315314623e-01
    4.3897453799536317e+00 -2.4103899050132990e-01
    1.2126196048491019e+01 -8.3034675784240827e-02
    4.9283060696251644e+00 -2.1203177276294313e-01
    3.1301494048287406e+00 -3.6113997655194646e-01
    2.4355249187607839e+00 -5.2281972254793829e-01
    2.1921631590282682e+00 -6.4731122738489755e-01
    2.0754516319467959e+00 -7.6046263930246938e-01
    2.0634759436570165e+00 -7.7780246325831337e-01
    2.0378064812304544e+00 -8.2354763220786320e-01
    2.0168358945179912e+00 -8.7839196387857210e-01
    2.0235333708368168e+00 -8.5791017524560909e-01
    2.0831535376192902e+00 -7.5023132895526767e-01
    2.2801345929553980e+00 -5.9256986223899000e-01
    2.4734404919904089e+00 -5.0906856637477016e-01
    2.8770697627733810e+00 -4.0442531032266649e-01
    4.2082156332697327e+00 -2.5281915626232893e-01
    8.8551165438539314e+00 -1.1440719048906887e-01</input_scale>
  <output_scale>
    5.2631578947368418e-01 4.9999999999999994e-01 5.2631578947368418e-01
    4.9999999999999994e-01 5.2631578947368418e-01 4.9999999999999994e-01
    5.2631578947368418e-01 4.9999999999999994e-01 5.2631578947368418e-01
    4.9999999999999994e-01 5.2631578947368418e-01 4.9999999999999994e-01
    5.2631578947368418e-01 4.9999999999999994e-01 5.2631578947368418e-01
    4.9999999999999994e-01 5.2631578947368418e-01 4.9999999999999994e-01
    5.2631578947368418e-01 4.9999999999999994e-01 5.2631578947368418e-01
    4.9999999999999994e-01 5.2631578947368418e-01 4.9999999999999994e-01
    5.2631578947368418e-01 4.9999999999999994e-01 5.2631578947368418e-01
    4.9999999999999994e-01 5.2631578947368418e-01 4.9999999999999994e-01
    5.2631578947368418e-01 4.9999999999999994e-01 5.2631578947368418e-01
    4.9999999999999994e-01 5.2631578947368418e-01 4.9999999999999994e-01
    5.2631578947368418e-01 4.9999999999999994e-01 5.2631578947368418e-01
    4.9999999999999994e-01 5.2631578947368418e-01 4.9999999999999994e-01
    5.2631578947368418e-01 4.9999999999999994e-01 5.2631578947368418e-01
    4.9999999999999994e-01 5.2631578947368418e-01 4.9999999999999994e-01
    5.2631578947368418e-01 4.9999999999999994e-01 5.2631578947368418e-01
    4.9999999999999994e-01 5.2631578947368418e-01 4.9999999999999994e-01
    5.2631578947368418e-01 4.9999999999999994e-01 5.2631578947368418e-01
    4.9999999999999994e-01 5.2631578947368418e-01 4.9999999999999994e-01
    5.2631578947368418e-01 4.9999999999999994e-01 5.2631578947368418e-01
    4.9999999999999994e-01 5.2631578947368418e-01 4.9999999999999994e-01
    5.2631578947368418e-01 4.9999999999999994e-01 5.2631578947368418e-01
    4.9999999999999994e-01 5.2631578947368418e-01 4.9999999999999994e-01</output_scale>
  <inv_output_scale>
    1.8999999999999999e+00 -9.4999999999999996e-01
    1.8999999999999999e+00 -9.4999999999999996e-01
    1.8999999999999999e+00 -9.4999999999999996e-01
    1.8999999999999999e+00 -9.4999999999999996e-01
    1.8999999999999999e+00 -9.4999999999999996e-01
    1.8999999999999999e+00 -9.4999999999999996e-01
    1.8999999999999999e+00 -9.4999999999999996e-01
    1.8999999999999999e+00 -9.4999999999999996e-01
    1.8999999999999999e+00 -9.4999999999999996e-01
    1.8999999999999999e+00 -9.4999999999999996e-01
    1.8999999999999999e+00 -9.4999999999999996e-01
    1.8999999999999999e+00 -9.4999999999999996e-01
    1.8999999999999999e+00 -9.4999999999999996e-01
    1.8999999999999999e+00 -9.4999999999999996e-01
    1.8999999999999999e+00 -9.4999999999999996e-01
    1.8999999999999999e+00 -9.4999999999999996e-01
    1.8999999999999999e+00 -9.4999999999999996e-01
    1.8999999999999999e+00 -9.4999999999999996e-01
    1.8999999999999999e+00 -9.4999999999999996e-01
    1.8999999999999999e+00 -9.4999999999999996e-01
    1.8999999999999999e+00 -9.4999999999999996e-01
    1.8999999999999999e+00 -9.4999999999999996e-01
    1.8999999999999999e+00 -9.4999999999999996e-01
    1.8999999999999999e+00 -9.4999999999999996e-01
    1.8999999999999999e+00 -9.4999999999999996e-01
    1.8999999999999999e+00 -9.4999999999999996e-01
    1.8999999999999999e+00 -9.4999999999999996e-01
    1.8999999999999999e+00 -9.4999999999999996e-01
    1.8999999999999999e+00 -9.4999999999999996e-01
    1.8999999999999999e+00 -9.4999999999999996e-01
    1.8999999999999999e+00 -9.4999999999999996e-01
    1.8999999999999999e+00 -9.4999999999999996e-01
    1.8999999999999999e+00 -9.4999999999999996e-01
    1.8999999999999999e+00 -9.4999999999999996e-01
    1.8999999999999999e+00 -9.4999999999999996e-01
    1.8999999999999999e+00 -9.4999999999999996e-01</inv_output_scale>
  <weights>
    <_>
      5.0552103624403188e-01 -7.5900372695214616e-03
      1.3231330426499177e-01 2.0221406603045400e-01
      5.6289418440689076e-01 -3.3212828406464778e-01
      -2.6086184592059025e-01 -5.5836314646179219e-02
      3.0144481806765927e-01 1.8779353256603595e-01
      -1.3322306138524653e-01 3.5961358185794608e-02
      -1.9093949055774559e-01 1.0300064053977402e-01
      -1.2055191414822060e-01 1.6423421337634420e-01
      -3.7819295392349239e-02 -3.9722433058524381e-01
      6.3544043240071527e-02 3.6754065084113063e-01
      7.3480685012837318e-02 2.3311241893366580e-01
      7.0183302765585598e-02 -3.5712067883087434e-01
      -5.8614913034254069e-02 3.1472892687218833e-02
      1.0505541621740291e-01 1.4163996336550111e-01
      1.0523373566569083e-01 -9.6366156422014446e-02
      -6.4463948697603524e-02 -3.1712946134652709e-01
      2.6693885354360833e-02 9.1170242834709397e-02
      1.5638956755428802e-02 1.7426986877812947e-01
      2.2844871180894999e-01 -7.1734694782760955e-02
      -2.5619349171553973e-01 3.1708123660378257e-02
      1.7795308369669952e-01 -1.5651874325665026e-02
      2.7199766918504717e-03 1.0321893129121987e-01
      -1.8197941737786535e-01 -3.9894655998621333e-02
      -5.8368327541688594e-02 1.0033206721927135e-01
      4.9119212415075039e-02 -8.8912650827465703e-02
      -3.6423356232297695e-03 -1.0060154677970015e-01
      2.9696839487800542e-02 -1.6652000356916796e-01
      4.4882071793807240e-03 -2.0323164407570776e-01
      -9.5578207820354907e-02 -7.9133331320111772e-02
      -8.2432515250704261e-02 -3.0063538180424487e-01
      -1.3471881442081390e-01 -4.4983362055193415e-01
      5.3430932992522454e-02 -2.1390474597078696e-01
      -7.3978691204099845e-01 -9.1008781699317365e-02
      3.9237717773103510e-02 -5.7690105511837279e-02
      -2.9328853259685045e-01 -1.6478317330450279e-01
      3.0559996912142895e-02 8.1955616283401027e-03
      -8.6483961136801721e-03 1.2026599965197561e-01
      -1.6552083060282236e-01 -1.2153762764332625e-01
      -2.3517886790275361e-01 2.0880513829356526e-01
      1.8182448908200666e-01 2.2921705058542248e-02
      -1.6588652021481934e-01 2.9218860014238728e-02
      -1.8100986233291160e-02 3.4056905537332349e-01
      -3.7839924679867198e-01 1.2210556269261660e-01
      -7.9549650259688243e-02 1.1663450057108032e-01
      1.2310406808091753e-01 1.3494287154631248e-02
      -5.1080463799461337e-02 -1.3035876887495498e-01
      1.0632792846720867e-02 -6.6194497506109840e-02
      3.0329766803913993e-01 -1.9191484391170804e-01
      2.8598327929081635e-01 -8.8200366806209782e-02
      -3.4933372133467130e-02 2.5369451184260627e-01
      1.8024577517508339e-01 1.9701742419124219e-02
      -2.6245785788808329e-01 1.4770334344722224e-02
      2.3133997918693305e-01 1.3438518142210365e-01
      7.2959963173398784e-02 -7.2508545854970477e-03
      -2.2859205983324823e-01 1.4427747826583398e-01
      -2.2395063708995813e-01 -3.9457870632910112e-02
      2.7541018548452336e-02 -3.3518543760889967e-02
      -8.0036918790526518e-02 5.2337661914715380e-02
      1.5865428926420155e-01 2.5510390229197377e-01
      -9.7315065490016575e-02 -2.6638269523853338e-02
      1.0558217884776465e-01 2.1019125610727767e-02
      -5.8528638755958408e-02 -2.8412658831435567e-02
      -2.0257530216014491e-01 -4.9726100184641109e-01
      -5.1161957624841152e-02 5.1469920017046540e-02
      1.0754244316977413e+00 -4.3404414893415039e-02
      1.6191420091021327e-01 -2.5800945362224564e-01
      2.1881691204309592e-02 -1.0561640544606689e-01
      -1.5891060892894318e-01 -1.8451695538442447e-01
      -2.0816524864011476e-01 1.2549993990729693e-02
      5.7783147161362243e-02 -1.8117835840256769e-01
      1.7702976535782601e-02 1.4874860777295759e-01
      -1.7953857411819804e-01 -1.9139355414269860e-01
      -3.5549167675667914e-01 3.1293676473439891e-01
      3.3408247677370584e-01 4.9905675334063643e-01
      -6.4866150783259760e-02 2.3892430712487900e-01
      -6.4871297449934622e-03 1.9550492944958589e-01
      -1.0616132864668026e-01 4.3089627022460325e-01
      -8.7797436249854782e-02 2.8766116272086611e-01
      9.7413529957472822e-02 -5.7261344849006579e-02
      3.2832173924274601e-02 5.5102671941271930e-01
      -2.4814143009786191e-01 1.2608698500502968e-01
      -1.8504702684043958e-01 1.8863532696224608e-01
      2.0192429118475874e-01 -5.9424549735395779e-02
      -2.8342268915828522e-01 7.4014444139245641e-02
      7.0004785558142449e-02 4.0527004748881115e-02
      5.7497723865747619e-01 -2.6552506122264275e-02
      7.2862180576148716e-01 1.2003115862979433e-01
      -1.1982685753799391e-01 -8.0761888625830551e-03
      1.3758755842925049e-01 -1.4540660649858472e-01
      1.5186908999107382e-01 4.0742680436774543e-02
      3.3259491988580703e-01 -7.6011995950843222e-02
      4.2588752462347840e-01 1.3144101105091019e-01
      1.7418450848688000e-01 -3.4856694685825956e-01
      -1.2403594265261521e-01 2.7265707600034084e-01
      -2.0973713958382920e-01 -2.4013896060239109e-01
      1.2725694486031620e-02 -2.2745119632903230e-01
      1.8980945036659622e+00 4.6314799629438554e-02
      -2.6114136593303962e-03 -8.4998879997360527e-02
      5.5694241157448261e-02 -3.7545816604575394e-01
      -1.1711385352239026e-01 7.1535407145075017e-02
      1.0105813495561597e-01 2.6185929394256890e-01
      2.8712217504085674e-02 -6.4926057910121232e-03
      -2.1912114143807829e-01 -4.5864662885121761e-02
      1.9288243684267337e-02 1.7871686721808677e-01
      -5.0352591091427468e-01 2.5410727351830148e-01
      -1.0543292662253129e-01 -1.4104534179935663e-01
      3.5067112877380374e-01 6.2392267779286699e-02
      -2.6965268643151120e-02 -6.1815007232592678e-01
      4.2077079692711308e-02 3.2564553967184950e-01
      1.3189994507570503e-02 2.8599414074553162e-02
      1.4801699782188721e-01 -2.7588585482158264e-02
      7.6108637795194681e-02 -1.3244847481744057e-01
      -4.1550353295735427e-02 1.2577559530921890e-02
      -1.9045345390736559e-01 1.3663389277638496e-01
      1.0487532578168406e-01 1.3987545384102746e-03
      -1.8855701697447563e-01 3.1125345935545501e-02
      2.4489508705611996e-02 -1.0079773151296979e-01
      1.1917087818315653e-01 -5.4263647277864008e-02
      2.6084617400809712e-01 -1.1221528489505760e-01
      -6.1066177417751173e-02 2.0023983599029091e-01
      1.3104569874798724e-03 -2.4213920761491339e-01
      -1.2741717139626024e-01 -9.3149938175414587e-02
      6.7987025984626151e-02 1.9510016264765775e-01
      2.5832083330824390e-01 -1.9526718177061992e-02
      2.4033388146265863e-02 2.0050438988585849e-02
      -9.0106937518990488e-02 2.9514561691214936e-01
      1.2914478417926736e-01 -5.2724308866207492e-02
      3.8297336225270769e-02 -4.4216296346646845e-02
      9.1509995958219448e-01 -5.2699166192135098e-02
      -8.1328547149208813e-02 1.3199118898080206e-01
      2.1028153836995836e-01 -7.9323125273277215e-02
      -6.0669271351889306e-02 -2.0729008616933753e-01
      -5.3190477678773475e-02 1.5887127438668680e-01
      -1.1871468143806169e-01 5.8618898774732163e-02
      -6.1281703256249809e-01 3.3435548309228041e-02
      -1.1990582310510195e-01 -7.1746749278005062e-02
      1.6782256670055340e-01 -1.0793745158999114e-01
      -1.7705795971165705e-01 7.5186057460270059e-02
      1.9220563284453953e-02 -1.5708032970426578e-01
      -7.6576826755222122e-02 -2.8292876254771165e-01
      -6.3753517346066449e-02 -8.9237264167063193e-02
      2.9781598075736496e-02 -5.5107921737240870e-02
      -6.4656181942902749e-02 1.9014890798052675e-01
      5.4572714469801824e-02 1.7678827171218134e-01
      1.0170229253830465e-01 4.1404166392234001e-02
      -1.6329541535609451e-01 1.3318377722311373e-02
      3.9446891035837622e-02 -3.5606549518946713e-02
      -4.1316783566770938e-03 -2.2682319903717263e-01
      1.3929144776669677e-01 6.7069279974075108e-02
      1.3066337862616165e-01 -3.3304995495395985e-02
      1.6212541802702463e-01 -6.6403949728296469e-02
      9.4721164385852444e-02 1.9294495543098389e-01
      -4.7120025907049612e-02 -3.0294462990319460e-01
      4.9700230356743702e-02 -1.1990772042492984e-01
      -2.5076510925019807e-01 7.9076309225230068e-02
      2.1132048986904223e-01 -3.4100613567292926e-01
      1.2699201608963137e-01 6.0107917410319969e-02
      -8.8938769301127582e-02 -2.1782375986553329e-01
      6.2158870755672543e-02 8.8257781764929266e-01
      2.2426971132337326e-02 1.1482629477584895e-01
      6.3893282968333609e-01 5.5917671591990202e-02
      -4.0539021500994858e-02 1.7249190527724118e-01
      -1.8663812375171704e-01 -1.5585047451664791e-01
      -1.5237266423998247e-01 -1.0688303415606242e-03
      2.9072933786148730e-01 1.7591899946524578e-01
      1.5437073360554421e-01 3.6746139439612496e-01
      1.3160131709596845e-01 -6.9230278766697531e-02
      1.5601108492698209e-02 -1.3062691049243810e-01
      6.3389842837545618e-02 3.7414339803065416e-01
      2.9523989573518722e-01 -2.9763947009139813e-01
      1.2898495448465780e-01 3.1519815468566269e-02
      8.9116074434723649e-02 -7.4567668912825014e-02
      -8.0064626250233403e-02 -1.6257763762546196e-01
      1.9064447170038950e-02 2.4459264988461382e-01
      -8.9303821040748715e-02 -4.4660692939057209e-02
      -9.0272255291887926e-02 -3.8632761945561633e-01
      -1.0986788029918404e-01 1.7698215944677458e-02
      -5.0180810495830570e-02 4.2156294155148863e-02
      1.8921982350701791e-01 4.5914646413610032e-02
      -2.1689995273143022e-02 -2.2736699006488162e-01
      -6.6923533667655202e-02 -2.3471116447680263e-01
      1.9535626489948074e-01 -4.1285542836589452e-02
      1.0205387125797774e-01 -1.2603813673260753e-01
      -1.8352713192103681e-01 9.0510844229822904e-02
      -3.1597018013958139e-01 -1.0345422172472347e-01
      5.4135618113750434e-03 -4.2677917775481924e-02
      -3.4835092767937788e-02 -3.5637439511218304e-02
      -1.4938328548502697e-01 -6.3869636790948273e-02
      7.6774642374961968e-02 -1.4001535525178794e-02
      -1.0426304996932009e-01 -2.8158154913830036e-01
      1.1737198604410476e-01 -2.9904125220940875e-01
      3.7117959036483510e-02 1.5928342259449690e-01
      2.5148782627636274e-01 6.7769453035543770e-02
      1.8608112816141281e-01 1.8102306907692237e-01
      3.5736836792428656e-01 1.0335183706742844e-01
      1.4758500509662341e-02 -7.1625663644792337e-02
      2.4239708564888837e-01 2.0469909958908358e-01
      -5.5543628310196290e-02 1.5559870559872846e-02
      3.7612887986946300e-02 -1.2800338490068458e-01
      9.7075694772832719e-02 1.9452961005940186e-01
      -6.5611894809644467e-02 -3.8738267179480546e-01
      3.5880053218773678e-01 -6.0112111640417000e-02
      3.6083432531899151e-01 -2.3113606570632082e-02
      -6.8906245122808407e-02 5.0839147167335987e-02
      1.3307305252792482e-02 -1.3912790948521048e-01
      3.9598124107674215e-02 -7.1334635203797306e-02
      -1.9511930184507098e-01 -2.0841309026763985e-01
      -5.7386719545828774e-02 2.0379924730847379e-01
      -2.8450875965072470e-02 1.4763596484183855e-01
      3.5571331049277916e-01 -2.1284492285111581e-01
      1.2461241208408726e-01 -1.0996908323498750e-02
      1.8723580218391056e-01 2.6221293998777317e-01
      3.1227537259161119e-02 -2.8075880971558170e-01
      -2.0111655546577439e-01 2.0112619525809874e-01
      -3.6886877530373036e-02 5.5173053145451956e-03
      -1.4431033916154841e-02 -4.0353943871727291e-02
      -5.4460525285089559e-02 4.2032083023461014e-01
      7.5214838810110055e-02 1.0429836060129902e-01
      -4.7207733406200110e-02 -1.3204855994801190e-01
      -1.2302004600835216e-01 2.8243609055884220e-02
      3.2349927611092066e-01 7.4215990894243855e-02
      4.0283739693830223e-04 -1.2023461636242723e-02
      1.3843908637923272e-01 -3.5656483880504647e-01
      1.2447671788621893e-01 -1.4982073484823941e-01
      3.8744492543365816e-01 2.4278873814981514e-01
      1.8173158647963511e-01 2.4888645412170281e-02
      3.1675852199799903e-01 1.1043269711029451e-01
      1.0277569892160562e-01 8.9618628530941283e-02
      8.8599858595927061e-02 -4.3763238773905776e-02
      -2.8569286343166184e-01 5.5698778739621140e-02
      2.4988330873196182e-01 -1.9120152228795032e-01
      1.7570272619143821e-02 1.7577774136848359e-01
      -1.9760117220186843e-01 -4.8900292048356464e-01
      3.1859978303259782e-02 -2.2605861956835099e-01
      2.1513923081443265e-01 1.0990725699885497e-01
      -2.2291504689555786e-01 -2.3007920296644976e-01
      3.0847862917706664e-02 1.2764118201666208e-01
      6.0612088504954309e-02 -2.4399653356530973e-01
      -6.7947234892447292e-02 -1.3044065035610899e-01
      -1.3961095873173615e-01 -9.1956882977838689e-02
      -1.3603884544409525e-01 8.8129936388663087e-03
      -1.6092249180006360e-01 -1.3428604905370026e-01
      1.5949318146403213e-01 2.9899699968440940e-02
      -2.5384676028745384e-01 -1.7041361325923810e-02
      -6.6023610450822390e-02 -2.0145094658338980e-01
      -1.2519694237019491e-01 2.0299077747880342e-01
      7.3280440343116995e-02 -2.2396564150926035e-01
      -9.4104991339056435e-02 -6.6047373735462794e-02
      5.3658492631653634e-02 4.8005769953208749e-01
      -5.6071635988850725e-02 -2.6630160578521515e-02
      -2.2824379553950710e-02 -9.1970436977915182e-02
      -2.9951616801438619e-01 2.1187981028842329e-02
      1.4737744057261593e-01 1.4466163872792648e-01
      9.9221531906699786e-02 -3.2074831686938662e-04
      7.2681854969369797e-02 -7.5362790943838609e-01
      -6.9131961451559337e-02 -2.7755920280215685e-01
      2.0569864378109628e+00 -5.3584513849502469e-02
      2.0199201142850787e-02 2.5644951585868170e-01
      2.5444411454837651e-01 8.1183134084511971e-02
      -4.7401177088699814e-02 -3.1011310064304959e-01
      2.1041853536040808e-01 5.7732497393771225e-02
      1.1167561033975471e-01 -1.8521587287919156e-01
      -8.4550291620354001e-01 6.4304327034829818e-03
      1.1841357587485371e-01 -3.3415248968460862e-02
      1.0410900231775448e-01 -9.1722519407379771e-02
      -5.9345736720096080e-03 4.4753521513746020e-01
      -3.7254798540047637e-02 2.2801728744684269e-02
      1.0263772433489973e-01 3.0626067182038513e-01
      7.0560197679443701e-02 -2.4281082224185357e-01
      1.4354834648595083e-01 9.4458724467271382e-02
      -8.9605842283821457e-02 -3.7628196523764014e-02
      1.5333477881242319e-01 1.0944339180149056e-01
      1.4975210110791864e-01 6.5605497658357256e-02
      -1.3036529736277783e-01 -1.4483210270120436e-01
      -5.6390862734549616e-02 -7.4443712920008065e-02
      4.4157492762488424e-03 2.8050673495314621e-01
      6.5966251903986445e-02 3.1248680995550221e-01
      -2.6193910378912516e-01 7.3538628707829498e-02
      2.1756589019353389e-03 1.5564955691912302e-01
      -1.0074886232363103e-01 -3.6045617711814487e-01
      -4.4187509519345408e-01 3.1292811136908993e-01
      2.2844820856973289e-01 9.8430175026169117e-02
      -9.5282951932945281e-02 5.3983699656799077e-02
      -2.0358176194493269e-01 1.1828792965778713e-01
      2.3423381201577004e-01 -1.6067764118317976e-01
      1.7470723595046014e-01 -2.3065805311924599e-02
      -8.2359672737771367e-03 -3.2634046326362393e-01
      -8.6938847731254612e-02 9.3354313423029425e-02
      2.9886922581908890e+00 -7.4333578463970054e-02
      -7.5358357169387968e-03 1.2237764405400679e-01
      -4.0723730290710519e-01 -3.2993680216440321e-02
      2.0413526586356615e-01 -1.7463674232267419e-02
      5.5809435337262159e-01 2.9909463627161220e-01
      -3.4278190321289054e-01 -2.5064747292621192e-01
      -1.7296538540217807e-01 -2.5096960140861257e-01
      -1.6519294866821285e-01 -5.2463787281707842e-02
      1.7226876989345502e-01 -8.0731215175210175e-02
      -1.8849029841651099e-01 -2.4292933829940108e-01
      -3.1774004628511243e-01 2.7012500751480220e-02
      1.1143458709078309e-01 -5.4668646006174075e-03
      -4.9789732815918031e-02 -2.6400986016391781e-01
      -4.5091790331695504e-02 -1.6504065599027773e-01
      2.9916486814607936e-02 -1.6693479033803211e-02
      1.1570547390926016e-01 -5.5743991595648934e-01
      1.9273288946330715e-02 -1.8597803772725710e-01
      -1.9665595731351757e-01 9.3426303871213007e-02
      7.9262652739174270e-03 9.5223546769667669e-02
      1.7489107817062260e-01 -9.8855394842701921e-02
      -1.3189259625321750e-01 -2.9363050234200626e-02
      8.0960615701876154e-02 6.9044591569676073e-02
      -9.7597608934294797e-02 1.4864350113344147e-03
      -1.6766607766509634e-01 5.9871547413080616e-02
      -8.8334088332877925e-02 5.4291693738615110e-01
      -1.1857830908965390e-01 -2.4898130134741961e-01
      7.8276848363935725e-02 -4.0838903182523957e-02
      2.5569372081584697e-02 2.9190275011054095e-01
      -2.9755516442508784e-01 1.4626557533585202e-01
      1.0677312266087205e-01 -8.0641863683228177e-02
      1.6044092507264185e-01 -2.8167340334491909e-02
      -2.6952953143102483e-02 1.6036188692892833e-01
      4.4190116116175462e+00 -8.6655383002849098e-02
      4.1276289816288576e-03 8.6526987214446016e-02
      -3.1002801957747156e-02 3.1925753787695084e-02
      3.3283448446143515e-01 3.4457476970437084e-01
      2.7725272428479991e-01 -4.0136923845897766e-02
      -2.8147210513865862e-02 -2.6095021180252165e-01
      4.6324639540778051e-01 5.9060936503833442e-02
      1.3752878460923379e-01 8.2856585659643711e-02
      1.5397296559256618e-01 4.7768628532411073e-01
      -5.1989496815858301e-02 -6.1524116863249334e-01
      -1.5945998736989508e-01 -3.2033862929487961e-01
      1.9733537423295755e-01 2.0201725756581548e-01
      4.4085033667001464e-02 -8.8346546932222533e-02
      -1.8162708231532254e-01 -2.6971408103708849e-01
      5.4216387280271259e-03 -2.2626812452523945e-02
      -8.7754556632694491e-02 -1.4515584790596753e-01
      1.1137995796590622e-01 -1.5825788281158396e-01
      1.3044328055747947e-01 -2.9555335387985299e-01
      8.5939968105152240e-02 -6.3991616170257504e-02
      -5.7588671254681333e-02 8.1290458083014563e-02
      -4.1974730863490961e-02 3.2887895187632704e-01
      -2.3076866052671857e-01 3.3371222234812109e-01
      -3.6075748905984750e-01 -1.3609532051973469e-01
      2.7528393535579446e-03 -2.3384008314768545e-01
      -1.4478666318050620e-01 6.8408046633362374e-01
      4.6134656070413615e-01 -3.2459059791748668e-01
      -3.5734701912135081e-01 4.9092685344220829e-02
      -6.5044154495832196e-01 1.3943055840109894e-01
      2.0373262718865814e-02 -8.8940353743735875e-03
      5.3356368162143494e-02 -4.4569270005214517e-01
      1.8339040146188462e-01 5.3225825971604968e-01
      -9.7898612004736235e-02 -1.0993653959714718e-01
      3.6338917305845468e+00 6.2725439209825604e-04
      2.7132184740851761e-01 -4.0121403056204716e-03
      -2.2231448952277591e-01 3.2986214873996689e-01
      2.8920832993369661e-01 6.9346134742065163e-02
      -5.3350073749051687e-02 -3.1604247067518898e-01
      8.1870891974040308e-02 -1.0945490485105380e-01
      1.9897324161151370e-01 4.9797214013706424e-02
      6.0360725703077114e-02 1.5528227329982452e-01
      6.4726768889016861e-01 -5.8881107985130976e-01
      -3.6634834430099139e-01 1.2357934660375361e-01
      -4.5138060537386804e-01 1.7734159520267682e-02
      1.1215442088916051e-01 5.7129544538170529e-01
      4.4143695642368107e-02 1.1317514883891275e-01
      -4.1654428117786163e-01 1.9577432780479115e-01
      1.4971962383355086e-01 2.3008250094688160e-01
      -1.6020325918416717e-01 5.0609503067197659e-01
      2.2690217322432679e-01 -4.8660026542907395e-02
      1.5050197803939475e-01 2.8449454630285375e-02
      -3.5357347725219912e-01 3.4055552998603356e-02
      -7.6362608870674961e-02 -1.5967889077244227e-01
      -6.1378365885910568e-03 -4.3538231913295429e-02
      -9.5299160409159811e-02 3.1293983443448109e-01
      -1.6537862443768078e-01 -1.0757865906100368e-01
      1.7644307810568469e-01 -5.0834946707773132e-01
      -1.7411799672552380e-02 -4.1063016474182390e-01
      1.5232442564115897e-01 -1.1662224947883751e-01
      -1.4709881096121263e-01 8.2543936052980382e-02
      4.1959230413959707e-02 -8.5038081307375474e-02
      1.8314350063869236e-01 2.3016066849365169e-01
      1.0721129444871332e-02 -3.4028575763157298e-01
      3.5462892141071192e-02 -9.2261533869991896e-01
      -1.7206517386274903e-01 7.3788629114593185e-03
      8.0723133535422809e-01 1.9036780452773489e-01
      9.9397131448912296e-02 6.5976518587460828e-02
      -1.0583146987567696e-01 -2.2526766839373630e-01
      -1.4305702484044899e-01 -1.1767753011195753e-01
      1.7121203366284762e-01 -2.5764438489071639e-01
      9.4269551935228846e-02 1.0095041494021581e-01
      -9.1878519715075269e-02 -4.3236548606795697e-02
      3.1051381240829073e-01 5.8801934529850164e-01
      6.1864369278450004e-01 1.0399886510653346e-01
      -3.4730796299242798e-02 3.4519433911676561e-01
      -1.6960333755907022e-02 3.4143512889100297e-01
      1.0354025089188085e-02 -8.9504486878657710e-02
      -6.2144931990065724e-02 -1.2902585164517788e-01
      1.1199933514398772e-01 -1.3263460871970068e-01
      -2.1600751833753576e-01 1.5640089417443912e-02
      -6.4791914558617603e-02 -3.9435585468246326e-01
      2.3385787134614791e-01 2.1167836301336745e-01
      1.9003201789438720e-01 -5.4569076743523862e-02
      -4.9114275839310113e-02 -3.3135368839405835e-02
      -3.3441283530621591e-01 -2.1781389848062124e-01
      4.3788687733145669e-02 1.9936850075887369e-01
      -3.8857961499249327e-01 3.3286472955595869e-01
      2.5596452811780131e-02 2.1702493819017424e-01
      8.5235886755363616e-02 -1.1584008065956376e-01
      1.7740855087141096e-02 -4.0253260557832360e-01
      2.2252448336322245e-01 -2.9275876710611159e-01
      -1.7836418047791167e-01 -2.9140552705559954e-02
      -1.3671218698766374e-01 -1.5575863905735324e-01
      -3.0809559729291162e-02 1.0722144281616948e-01
      1.2760146465182370e-01 -7.1210980486808587e-02
      -6.8861839394185970e-02 3.9848663229710807e-01
      -7.4500285530252744e-02 -1.8215694485071934e-01
      -3.3032580694990843e-01 -1.9295078521241957e-01
      1.8181703585063530e-01 5.9248909063556419e-02
      5.2316318130375329e-02 -3.3473937722468877e-01
      -7.1104695000335325e-02 1.6339806982324209e-01
      -1.1492802073751972e-01 -1.7547616779211117e-01
      -1.7744373729546958e-01 -4.8633616181366662e-02
      8.4531266962061091e-02 -1.2068761645674601e-01
      -3.2279509792908684e-01 -1.7637833174025361e-01
      6.1018673987161054e-01 6.1794546890135527e-02
      1.5482551722150797e-01 1.6849849512181372e-01
      9.7466652728095848e-02 8.5915948724429370e-02
      -3.0857994097445235e-01 -2.2966905879609530e-03
      -1.2717785143066077e-01 2.5906321421541628e-01
      -6.4882358324233197e-02 -2.8639271075674189e-01
      -1.4111089339861260e-01 2.6824949194475267e-01
      -3.1638610858982612e-02 2.0068198720399685e-01
      -2.5395260639991835e-01 8.9194899405375991e-02
      -2.1697599886882538e-01 2.1961743392360258e-01
      -7.4387688302084032e-02 4.1202127687757828e-02
      -2.0792634711323385e-01 -3.1499904414308097e-02
      -3.4570469011839799e-02 2.1859744184563773e-01
      5.2046158479454117e-02 1.4872464301616053e-01
      -1.6609736724812504e-01 5.0485642048894364e-01
      5.3064580597455828e-02 -4.8813935272017495e-02
      5.4671449591718997e-02 -3.9466880046647679e-01
      4.4686050990113774e-02 5.9368937686004368e-02
      4.8161555763105067e-02 -1.7943574188912628e-01
      -1.1514428775646654e-01 3.8200976293879932e-02
      -1.5916832060111094e-03 -1.2814611081127796e-03
      -1.0445565419079429e-01 1.1535754935795323e-01
      8.6512952110272476e-03 -1.3795049172735763e-01
      1.7334915877377496e-01 1.0940155918261577e-01
      -3.2028202082701194e+00 8.2346209184829700e-03
      9.9947025397931960e-02 -2.7401575871682071e-01
      -3.2115861643984461e-01 1.3673162371407097e-01
      1.7099247200450454e-01 1.9440650780514224e-01
      1.4495421369907197e-01 2.9526207351781599e-02
      5.7984502335577198e-02 1.1864627911186296e-01
      -9.2706849395502791e-02 1.2548515973280469e-01
      9.3355742635306271e-02 2.3455856220279822e-01
      -3.1301683925161833e-01 2.2643611524216103e-01
      -2.1248334897751620e-01 2.4449204236726277e-01
      -4.0329936421605850e-01 1.2503263403672543e-01
      -1.6393950720521848e-02 1.3706681251584904e-01
      1.6157369528269619e-01 1.8054448321400487e-01
      -2.2689546099369873e-01 -2.2044926313596000e-01
      1.2274013088690527e-01 -4.9958524885865128e-02
      -1.4318020049912988e-01 -1.1785902079305460e-01
      1.8440860063332054e-01 -3.3526893782439655e-03
      4.2841711566017619e-02 1.9963871950424975e-01
      -1.7707081949651979e-01 2.3586062214621012e-01
      -2.9697297244368915e-02 8.8638359301807856e-02
      -7.6266556630528851e-02 -2.3500636691797042e-01
      9.7433092009170622e-02 -3.4045363208820195e-01
      -3.5378275128303265e-02 2.0430944713810667e-01
      -1.1921804366969067e-01 -1.5035460705223808e-01
      1.0452324266993290e-01 1.0580068608990653e-01
      -4.5283785488881623e-01 2.9286757108449502e-01
      2.0450618170728030e-01 2.7869225136431343e-02
      3.4329727488180739e-01 2.2624944679802861e-01
      -4.7053786918333396e-01 -2.5830028566120167e-01
      3.7456933133377102e-01 6.8752589662409283e-02
      4.5343620311753124e-02 -5.4060712254089394e-01
      -1.5857201982536764e-01 -2.3430152911459132e-01
      -3.8087207407715571e+00 -9.4828342237969682e-02
      1.2789953441082511e-01 -1.0183412923762511e-01
      -9.0887441601298899e-02 -1.9800700830539919e-01
      1.3527995239432877e-01 2.2133174832780228e-01
      1.8633225874358264e-01 3.6781992179285637e-04
      1.3843420926750652e-01 9.6846053097490156e-02
      -5.1364669495588866e-01 -4.7667464317018737e-02
      1.6701031713762701e-01 5.8504230582395768e-03
      -2.4158914350362243e-01 -3.0678219098540040e-02
      -4.2004998507677266e-01 -3.5937259784254244e-02
      -4.5509879118730989e-01 -7.8927753849146812e-02
      6.7593000748215989e-02 8.6021548037402945e-02
      -1.3573547663097490e-02 2.7171614883403750e-01
      -2.7408166947709989e-01 3.3547382611161825e-01
      8.6384161431484030e-02 9.7713428476791556e-02
      -1.9911792362902711e-01 -4.7740770228437290e-01
      2.7146646694871301e-01 2.7088878837212688e-02
      2.0023775620378229e-02 2.1818729005143037e-01
      2.9403237913070503e-02 6.9411054484080706e-02
      4.7928148082532179e-02 1.8282201349690394e-01
      1.0126432370784973e-01 -9.3804740193897743e-02
      4.4082878804839226e-01 -7.7412781169074490e-02
      -2.6162869231481825e-02 1.2144732972448891e-01
      -1.7445024202878581e-01 -1.6186935445947095e-01
      1.6994426513208544e-01 2.9165150608176902e-02
      -1.2871014150755655e-01 4.7610667402613431e-02
      5.2768828435243442e-02 -1.0108119337198865e-02
      2.1316056075918288e-01 7.5630596163825489e-02
      4.0563386078201133e-02 -1.2413005550774352e-01
      4.4079731816078477e-01 -5.7647450508311118e-02
      5.6062485909175376e-02 -9.6655984485473009e-02
      -3.7349037536115501e-02 -1.3304683307811693e-01
      -9.5034455038666577e-01 -3.1676489647279410e-01
      2.8907569058678773e-01 -3.6434201769951013e-01
      -3.3486825398493297e-01 1.7510457310147214e-02
      1.5122533213545647e-01 5.5163076254644790e-02
      1.8739598249653203e-01 2.8540592980860047e-01
      -1.4466630276766582e-01 4.8980817025978309e-03
      -1.5280294696045321e-01 3.7993443823748661e-02
      1.2230242801824896e-01 -2.2565995396111646e-01
      -3.1526405392767576e-02 -6.1956835194238880e-01
      -1.6895965156454812e-01 7.7753110188430730e-02
      -4.4349865502078334e-01 -1.1953362870024789e-02
      1.7032242252120525e-01 3.9315302345906583e-01
      1.1389776819080646e-01 2.3977824372076711e-02
      1.9890364932308854e-03 6.7633471051370742e-02
      2.2927229364885574e-01 -2.4513174372816009e-02
      1.9897140579967768e-01 1.1608210207743596e-02
      -6.2097715837095994e-02 2.6109285945995899e-02
      -2.0001662289567540e-01 3.6382839339028983e-01
      -5.6506835595163778e-02 1.1636648651437202e-01
      3.5832335855247546e-02 8.0591043178617622e-02
      2.9577780241111729e-01 -7.5938686224948149e-02
      4.2717917877211664e-01 -1.1564137852412762e-01
      -2.3440378877791124e-01 4.6711081710439833e-02
      -1.0338214221366084e-01 -2.3186411204573040e-01
      1.1316171519093355e-02 -2.4030414990337515e-01
      -6.6503050168948849e-02 -8.7700692937851460e-02
      2.0312151934085981e-01 1.0160482136259850e-01
      -1.8784229161615959e-01 2.0393801483600948e-01
      2.1768855738692666e-02 -2.2338869731673772e-01
      -8.1824420953684092e-03 -1.3717503673823167e-01
      1.2487273165872162e-01 -6.1233986066363766e-01
      -9.1598686298066057e-02 -3.2609999865287403e-01
      8.6357200947053547e-01 9.1926752294067729e-02
      -2.6024273746032243e-02 -3.6925312768008749e-02
      1.3896411359386127e-01 -2.4779056130840674e-01
      2.1980477499287627e-02 1.1393648530274621e-01
      -4.8343258458957244e-01 -1.3669319159860848e-02
      7.7596966219859523e-02 -7.7530534527497225e-02
      1.2678292909737957e-01 3.4735795306767570e-02
      1.6542765027257769e-01 4.7862763772301836e-02
      -4.5053151137716158e-01 2.9270470861559733e-01
      1.2372601859070011e-01 -1.5828756684229350e-01
      -3.6669523894692524e-02 -2.2041248363804092e-01
      3.6388755579275948e-02 1.7872429071989521e-02
      -8.3595209897154840e-02 1.1199900855116277e-01
      1.3646892911341332e-01 8.9653809977022804e-03
      3.6408479904223018e-01 1.5932871992447833e-01
      1.5807617740657359e-01 -4.6259468421546560e-02
      -1.0685747300861459e-01 4.5406828277214262e-02
      -3.9856104624661826e-01 -1.5159860599540018e-01
      -5.1899885077800613e-02 -4.2630307491046661e-02
      4.5493311159525490e-03 8.9303317533566282e-02
      -6.4602051877061445e-02 -1.4943562840990607e-01
      -1.1131281524986243e-01 -1.6391230727907810e-01
      -9.3036027568273880e-02 -3.2084284921373628e-02
      -2.2041447938951841e-01 1.1144034921679417e-01
      3.0927566018589031e-01 -5.1437202444198427e-01
      -3.0148292556630185e-01 -1.0179316055227403e-01
      2.5258277769798060e-01 -1.1150889934424295e-01
      -2.8296988031336932e-02 -2.5568724392239955e-01
      -2.3084042955047283e-02 -1.0276889037328713e-01
      -1.2760017347888750e-01 -5.2445697729788639e-02
      -3.5334201673401323e-02 2.5372305871563011e-01
      -1.3368408038384060e-02 -3.9825430993920302e-01
      1.5060757438285752e+00 4.9809550029122192e-02
      -5.6747311569362711e-02 -5.0637061937903960e-01
      1.8570940110090961e-01 -4.4989910905296066e-01
      -1.7556219804164172e-01 -1.6920096390375858e-01
      -7.9708253437688870e-01 2.4022706045625455e-01
      2.1188155277922782e-03 4.8530724342836395e-01
      2.4035381766947660e-02 1.7530520709695130e-01
      5.6610889527829965e-03 1.1915387071091711e-01
      -2.8404563219139178e-01 2.6565365096303650e-01
      8.4989770756061112e-03 4.9851179748907036e-02
      3.8893685315000986e-01 -2.8053174165730205e-01
      -2.1317502808828288e-02 -4.7626056968025698e-01
      3.6484046917030777e-02 6.8425264695382237e-01
      1.5269302541070673e-01 3.5653914987469887e-01
      4.3936409385021552e-01 2.1583939010532499e-01
      -1.4331947421318000e-01 1.2746569014879188e+00
      -2.6607504147353089e-01 2.1809088216564571e-01
      -5.4626830462782439e-01 2.2272972134169493e-02
      -6.6537748001998853e-02 -4.5213652611699337e-02
      -4.0730833329751531e-01 2.5027444802055404e-01
      1.2014088704531392e-02 1.0998582216536933e-01
      2.3766314711644149e-01 -5.9371810908098954e-01
      4.0040903223675017e-01 5.9157846530424330e-03
      1.4611606683816319e-01 7.9819547188957937e-02
      3.0762627498047718e-01 -8.1049967283694002e-01
      -2.0945147623565435e-01 -1.2029663762724800e-01
      -2.7076979510656596e-01 -5.3253824145261176e-02
      9.1511658948557750e-01 -1.7126553946452908e-01
      2.9908858669891425e-01 7.0185720807014032e-02
      1.0043224902658623e-01 7.3374141241176971e-02
      -1.3547039574804082e-01 7.6578467533202654e-01
      5.1546621007847571e-02 -4.2413347736559809e-01
      -1.3093156070719913e-01 -1.1544177414479569e-01
      -7.9880565500916295e-02 -5.5249422102597057e-01
      5.2803012355097149e-02 -3.6044107704122047e-01
      5.1800701815543547e-02 3.5850252931084298e-01
      2.5353064054280905e-01 1.1660048520578574e-01
      2.3922854153820444e-01 2.0361712373095081e-01
      -2.7160605907467151e-02 5.2589713867326982e-01
      2.3396052754069468e-01 1.4743030362407919e-01
      -3.9200026218931150e-02 7.3326078310078840e-02
      1.0919727408542382e-01 -1.3806355951841265e-02
      3.6351236637227280e-01 -4.2718043006442469e-01
      2.9550185023973313e-01 9.9594406456232729e-02
      1.2300827269885918e-01 5.7053219236743245e-02
      -1.1663942992218397e-01 2.2579856865993539e-01
      -5.5184211724155489e-02 2.6076953438702405e-01
      -3.7979436632690239e-01 -2.5565173103092659e-01
      -3.4729755249126998e-01 1.1875094924696129e-01
      -2.6045131327072440e-01 2.2576171732256373e-01
      2.3209909166840578e-01 -1.8284787705043576e-01
      2.8603504661921580e-01 5.0952912079460866e-01
      2.1955008193529280e-01 3.0327793467629327e-01
      5.3071292798530123e-01 -5.4621349930557539e-01
      5.7823556717484603e-01 -2.1638989401131378e-01
      -1.7706500647075693e-01 -3.8700380083780121e-02
      -2.5847997134501827e-02 -1.5300205321085794e-01
      1.5711805299254117e-01 2.5534245365238961e-01
      -2.1152033599304360e-01 2.2693169887200387e-01
      5.8566915136739950e-01 -4.2928068189892982e-01
      -4.1910931726236728e-01 -9.4729918286654641e-02
      1.5169355063906632e-02 2.7499021088700670e-01
      -1.7755600378290798e-01 1.2180239552242900e+00
      1.3004775996132806e-01 -1.2262239696065745e-01
      3.8102865801245273e-01 -1.5640065796261329e-01
      2.8097313988331735e-01 -2.4514702302935193e-01
      -2.6210537322788180e-01 -4.1418277619564203e-01
      1.1863213507900996e-01 -1.2347250120711266e-01
      3.8780044742934294e-01 1.9907206269440939e-01
      -8.8835901081725871e-02 7.8613110784509527e-02
      -1.8902097081666042e-01 1.8360744976451704e-01
      9.8981947910773277e-02 2.0153416845059929e-01
      -8.9024484663398198e-02 -3.3622421244208237e-02
      1.1146032443284073e-01 -3.4023979133749244e-01
      2.5064521513587351e-01 -3.2360307036989433e-01
      2.9743620297684480e-02 -9.7527460031888238e-02
      -7.7854581892843999e-02 -1.7834643174284853e-01
      2.6711443331060952e-01 2.0757752801355597e-01
      -2.4908476638755003e-01 -1.0519466744050203e-01
      1.4714613635227254e-02 1.3170092630965075e-01
      -3.9258017189956845e-01 -6.4092656010818094e-02
      -2.2204935527313593e-01 3.9407859116172766e-01
      -1.0502109080054968e-01 -3.3884033544220309e-02
      1.5011641702657399e-01 9.7242946042312137e-02
      2.6861452572698452e-01 -3.5134203869328674e-02
      2.7322816300037767e-01 -2.0855195155581477e-01
      7.6126455454981623e-01 9.3785370027425524e-04
      2.1949896597470389e-01 2.7792244744728287e-02
      1.7748977610136654e-01 -1.2000844533793535e-01
      -3.8476780312055141e-02 3.6754206183147536e-01
      5.3361916325655991e-02 3.0851321014422362e-01
      1.6073393154840107e-01 -3.1152330717580209e-02
      -1.8418390698881737e-01 -4.1531612369060050e-01
      2.0832309941817518e-03 7.5319976377519110e-02
      -1.5958000922904900e-01 -9.2212143519413772e-02
      7.4620412813929046e-02 1.1197848047655111e-01
      2.0582677793847672e+00 -2.0988282007100806e-01
      5.5431551870722795e-01 -3.1379157291231230e-01
      2.4932076459031274e-01 -1.5400023457515213e-01
      -1.9444846980181546e-01 -5.2014362890316919e-02
      6.8102559393856110e-01 5.4787197459206693e-01
      1.5556563694174308e-01 2.5740279624242840e-01
      -3.4334766715122707e-02 1.4575607296174911e-01
      1.2439196037762175e-01 2.4685684734164640e-01
      -1.7881635293802628e-01 -2.8921830817192529e-01
      7.7763136851671841e-02 -3.9488668416771289e-01
      4.0502606327187046e-01 -1.9257024143428966e-01
      -1.5340416654290157e-01 -7.6984564253480481e-01
      -1.1034726153528930e-01 -7.8773970911637320e-02
      -8.2810081717302350e-02 2.6145991733629559e-01
      -1.1303232656230403e-01 1.6992917831676696e-01
      -2.3528594472278161e-01 5.3964204392078621e-02
      -2.4837810190788270e-01 1.5732261240313949e-01
      -4.3307260780869106e-01 4.2904703392947913e-01
      7.1447742450314500e-01 -2.3018320753889928e-02
      2.1854704185759979e-02 -1.4355680728777603e-01
      5.4930196069473736e-01 -2.5002994561021608e-02
      3.0803579609786291e-01 3.7989124182450212e-01
      5.7615491774092908e-01 -1.4949185315796010e-01
      1.5178511059090333e-01 1.7713163946486574e-01
      -5.1103100804427271e-01 2.1231313839775368e-01
      4.9836298869417556e-01 4.2292289262524582e-02
      -5.7567768952897100e-02 2.1006300676044126e-01
      6.3507523279685774e-01 -3.9203077115844054e-01
      1.3197855660908667e-01 -4.6373101222887486e-02
      -3.5928804759040600e-01 -3.8809327622280682e-01
      1.4514073916328257e-01 -8.9600600910869410e-02
      -1.3857990432835006e-02 3.9905418025136169e-01
      2.7417340994399222e+00 2.9662031938984593e-02
      5.2825427503861166e-01 2.9105792111941392e-01
      3.7373490702516665e-02 1.8742001511936335e-01
      -1.5403068969710473e-01 2.1342842922628841e-01
      3.1338738948179246e-01 3.7046682689164562e-01
      -1.4685042261704778e-01 3.5386979520178535e-01
      5.7054298081308282e-04 -3.3050374068436118e-02
      2.2106769707377716e-01 1.3331831124345528e-01
      -1.0690004047361836e-02 -5.9091669382805245e-01
      1.7280058657330524e-01 -1.6358968741609056e-01
      5.9575600702737286e-01 3.3302023375745830e-02
      2.1500249321069048e-01 -4.2187599880989185e-01
      -2.1098325026500700e-01 2.0384267559993349e-01
      1.8040787698702104e-01 -1.7250949520740877e-01
      -4.1730329834105617e-01 -1.4032653926236793e-02
      -3.7548285401654269e-01 1.1223453611275222e-01
      1.2060496288218657e-01 2.2239194696463999e-01
      -5.9172182899138814e-01 3.9214201165022849e-01
      6.9213330283795826e-01 -3.7163874028585397e-02
      -2.0734129080210223e-01 -1.9913256817128269e-02
      2.6653927184775872e-01 -4.2473448585921497e-01
      6.2279793744191325e-01 -1.5726037616733449e-01
      3.6095949846261349e-01 -7.8008402756164286e-01
      -3.3733441772719819e-01 1.8115064883909482e-01
      -4.9659915484832828e-01 4.9420425434946558e-01
      3.7189276063575988e-01 1.8952272897389733e-01
      -3.6192405817029538e-01 -7.6399159508484749e-02
      1.1204636577859306e+00 5.6187124812217874e-02
      5.8428281618495437e-01 -6.5941073395527627e-03
      -2.6445154155071265e-01 -3.5904697845693628e-01
      2.3044532025065428e-01 -8.5028013053581364e-01
      8.2278175795471670e-02 5.8597129974131294e-02
      4.7571010564316746e-01 -9.8908025729312222e-03
      1.3352008571662419e-01 3.6118070975405603e-01
      -6.1223926050310451e-01 8.3302697868806719e-01
      1.6406132460993839e-01 8.2201569905886340e-01
      -2.9854542269232315e-01 -3.3607301389123115e-02
      1.9679279965770458e-02 4.6381472355919490e-01
      1.2802229700527870e-01 1.0325445922591225e-01
      1.0800034208034962e-01 -4.2647344982863357e-02
      2.0732735008857850e-01 -9.2769544014207084e-01
      1.5719041097110895e-02 -2.1733113305771132e-01
      3.0135316836682513e-01 -1.1288099376253451e-01
      7.9993479754109240e-02 -3.3585993267239000e-01
      1.1366176470558989e-01 -3.5300598245239995e-01
      2.3405327665994330e-01 -3.5602329086180308e-02
      3.1837319339457187e-01 -4.9389632070420172e-02
      6.0892922565289033e-02 -4.8874367944907166e-01
      -8.3735069706055626e-02 2.5868624489448294e-01
      -5.0364360016379484e-01 4.9798744038009254e-02
      1.2813515842958445e-01 1.6292762130459779e-01
      8.1394171563863638e-01 3.3719916481883910e-01
      -2.5134779203481927e-01 -3.3724578586692383e-01
      -4.9650914929282575e-01 2.6012289565788466e-01
      -2.6398116378887149e-01 -8.2341440101780283e-01
      -4.2819709579816034e-01 2.7365660564678640e-01
      7.9361775044694965e-03 8.2781941087728750e-01
      1.8453355371694100e-01 1.3355590845785920e-01
      -2.4047595464046242e-01 3.7335795849437109e-02
      7.6397018861419319e-01 1.6452824259896198e-01
      -9.1272751742528635e-02 5.4984973637860790e-01
      1.8495389735978524e-01 -5.1613813895862004e-01
      5.9881207644258216e-01 -1.0600754217076975e+00
      9.2106342993692206e-02 1.7967439023066931e-01
      1.0926532111495262e+00 1.7473660221515105e-01
      3.5337359499943058e-02 -9.6548013065142213e-02
      -7.2265967300454509e-02 5.4903352573219477e-01
      1.8754330988411042e-01 1.1817904042784957e-01
      -1.3297784314167968e-01 -4.8130040330622424e-02
      2.3762803130955990e-01 2.4974341843351630e-01
      -1.8499015731216428e-01 -2.2068354809437607e-01
      -2.6730487417774945e-01 -1.2530240362848846e-01
      2.9881647021753638e-01 -7.9895714645904592e-01
      -1.0820193737316933e-01 1.7100770269656906e-01
      -2.3759936368418455e-01 -1.4080068934626952e-01
      2.5596365637842505e-01 -1.9978086232242354e-01
      -2.7284660524331136e-02 -3.9700058168459201e-01
      7.9018327463633020e-02 -2.7105523636235002e-01
      -6.5819272523321648e-02 -3.0274478248979383e-02
      1.1360439785652059e-01 -5.9584223777958412e-01
      -6.9038871819479389e-02 3.6665386154224322e-01
      -4.1486729097204973e-02 3.2094267408065247e-01
      -1.1755059980072140e-01 9.0436427291917518e-02
      8.5320687676239537e-01 1.8151085551544424e-01
      -1.8527415238486114e-01 -1.6008487545217223e-01
      -2.7638260660662439e-01 1.5608966532602991e-01
      -9.6832612369930834e-02 -5.6927520303015278e-01
      -2.4709401256506477e-01 5.4787118284353409e-01
      -3.1481750722288392e-02 8.0115779624121453e-01
      4.0657573916556744e-01 -3.0992884886992877e-01
      4.6852225140059704e-02 -3.6422543589962991e-01
      2.0238388086934855e-01 4.0317471702810675e-01
      -2.0643148600026184e-01 2.0067034591885530e-01
      3.2010160348461558e-01 -2.6067497185739968e-01
      7.3472493996197563e-01 -9.1065374380449149e-01
      1.3503153282767880e-01 -1.0559399606073434e-01
      2.6900524156893373e+00 2.3805522477931698e-01
      -3.8942578224567603e-01 -2.6844454627349557e-01
      -7.4555578422755550e-02 1.2646476997636541e-01
      -6.2018225822199846e-02 1.9948036430483093e-01
      2.8471082302967202e-02 -1.1859456512443121e-01
      1.1940462544686317e-01 -1.8000133300998797e-01
      -7.0943721421482878e-02 4.3375526676539111e-03
      -1.2218065655143714e-01 -1.3001863131817321e-01
      2.2854803530148446e-01 -6.4064950914202290e-01
      2.2182160337908260e-01 4.8504115558311758e-02
      -1.7128451026730507e-01 -2.0924007608011974e-01
      2.5272175026620858e-01 -3.3436703493746300e-01
      1.0804720685025219e-02 -3.9603377512039611e-01
      2.6959909533227029e-02 -7.8377598262679482e-01
      -3.0639021485171508e-01 -1.0905870165683246e-01
      9.2887929329233329e-02 -2.6100684925191975e-01
      1.0409637181790357e-01 2.2069936783537633e-01
      -1.2504560375611845e-01 1.3317212694117697e-01
      -3.7692307880305870e-01 1.7759224323049366e-01
      2.8473481209856905e-01 -6.5159403130287119e-02
      -9.1976762939566747e-02 4.3575816093484226e-01
      -3.8791108606416297e-01 2.8408304869216922e-01
      -3.4639839425509890e-02 -2.6138687233565189e-01
      9.5861975831196974e-02 2.9876501726615143e-02
      -2.0367240555116650e-01 5.8458640941088158e-01
      8.8734569426202892e-01 -4.1445508313085161e-01
      -4.0836358166902662e-02 2.1165067297801288e-01
      -5.4013979934562084e-01 1.5806427898069667e-01
      -3.1931193293812404e-01 2.9445534120034610e-02
      -2.1596487070229053e-02 -3.9483758891372428e-01
      1.0906443583481172e-01 -1.8334237970188230e-01
      2.0549132458840833e-01 1.6074160650419145e-01
      2.9578684539283344e+00 -5.7502372304646186e-02
      -2.5676222061653031e-01 -4.8059773466717942e-02
      2.9261738689589595e-01 -8.0231238941107536e-02
      1.4037085446887934e-01 -6.7526313217252942e-02
      -1.0723447118553196e-01 -1.4066202481661252e-01
      -1.3113912038391115e-01 -1.0622006089868249e-01
      -8.7907397937307799e-02 1.9008055587625725e-02
      -1.8238205915936806e-01 -7.9504903370030772e-02
      2.4022956345349172e-01 -1.1080295104320239e+00
      1.1669264716277873e-01 4.9208443361389673e-02
      -5.5701703503603506e-01 -9.6415971022864977e-02
      1.4667381414724137e-01 3.7452604483492818e-01
      -1.2139809058145061e-02 -3.2400626439107105e-01
      -2.3892465681958636e-01 -1.0293070355794343e-01
      4.5175588452343061e-02 1.3368240025990730e-01
      1.6222741436490232e-01 1.0645795536518034e-01
      2.6983166759829491e-01 1.0398592924560985e-02
      -1.7402823581936114e-01 -5.2112893530976534e-02
      -2.5291392996283812e-01 -9.7234838886581493e-02
      9.2588159920937080e-02 2.4454453114269065e-03
      -4.6121344569967304e-02 4.0299285852541021e-02
      9.6287360086963585e-03 1.5485809412677498e-01
      -1.8944753126199448e-01 -8.1220481080820320e-02
      2.9890585904508837e-01 -4.1293436619952489e-01
      -1.9332787261949066e-01 4.0894768908529894e-01
      3.1505308016037764e-01 -3.1413647874851486e-02
      -2.7653548239617259e-01 1.3935724638441480e-02
      -3.7521677737625725e-01 1.3872944781656651e-01
      4.7384327344238822e-02 -1.1575684136357380e-01
      -1.6625835208280162e-01 -1.3735418127923868e-01
      8.1250720448716354e-02 -3.4226878033663471e-01
      -1.8519244898274473e-01 -7.1218697016429411e-02
      1.8522321889473430e+00 -1.2649159611039826e-01
      -4.0009246692889011e-01 1.3025002426124865e-01
      1.8343530682565756e-01 -7.9815395693656852e-04
      -5.7794818106670268e-02 -1.2182908615552507e-01
      8.1870526740767141e-02 -1.2251976913089874e-01
      -2.0960986730442094e-01 8.7806514248363245e-03
      5.3821968254617891e-01 -9.2198992594198035e-03
      -4.9685441004685117e-02 -7.8342720491042406e-02
      3.7435683051028033e-02 -3.1158897723535356e-01
      -2.7218992332465716e-03 5.9499382249613908e-03
      -5.6258944985383996e-01 -3.3834681380615003e-02
      -8.7189291174026892e-02 6.0864928613864056e-01
      -1.8127535177832860e-01 -9.4626762832064878e-02
      -2.0283518795056826e-01 -3.5967078664905605e-01
      1.2204721635399200e-01 3.1016120073576653e-01
      -1.1591539141486630e-01 -1.0626638963468590e-01
      1.3592317655426200e-01 1.4882855761598514e-02
      2.5665885611478340e-01 -1.4439716698320984e-01
      2.1424413772489548e-02 -1.7200053826102543e-01
      1.5837429935176120e-01 -1.2023605375157727e-01
      2.7586955635460410e-02 -1.8046834584830604e-01
      7.1383108431568396e-03 1.8117032062240054e-01
      -3.7972835635894725e-01 2.6201561853817756e-01
      1.2648680300792758e-01 -2.1335321678754182e-01
      -1.1419822038597832e-01 2.7721891569608026e-01
      -2.4064145185868188e-01 3.0221996315795634e-02
      -7.3792366276818733e-02 -1.3166827622704103e-01
      -1.6660767155416611e-01 3.1289091451014668e-02
      4.1060837881943382e-02 2.4227229630379002e-01
      -4.9963478177536033e-02 -2.3188934559425084e-01
      -2.6386182770981089e-02 -2.1655119945921203e-01
      -5.9091321796656569e-02 3.1489562133036275e-01
      3.3114076823841483e+00 -1.6324821908829573e-01
      -5.9617021689217942e-01 1.3088004718467941e-01
      -3.3670524191056150e-01 -2.4109928405765627e-01
      3.9024461610668820e-01 3.0881469518196908e-01
      -9.0067350453649567e-03 -1.2866058156877638e-01
      -1.0133092123511277e-01 -2.2227189825910390e-01
      3.1162930969201130e-01 -4.1712795361034699e-02
      2.3604011056806351e-01 -3.0280846034927927e-01
      -3.8746671888986041e-02 -3.1666377710472909e-01
      -3.1981705521053716e-01 1.4412165883819866e-01
      -7.1586768761351849e-01 -1.6820349408107649e-01
      7.5445875060040551e-02 2.6896974081891850e-01
      -2.9178211115235470e-01 5.1495018414988637e-02
      -4.0862972514377954e-01 -6.7329345571097554e-01
      1.9135383132413389e-01 1.2411358816414093e-01
      -4.9361222702509877e-01 4.1850090249502858e-01
      1.7632931020950465e-01 -2.1230393441821122e-02
      -3.4244713094219609e-01 -2.2499301255194284e-01
      -5.2829850432580217e-01 -8.4789622349252358e-02
      -1.7390024544920371e-01 -6.7668219796075491e-01
      -2.2966223704308700e-01 -1.1416125846461882e-01
      6.5735349186365324e-02 3.0327206242586247e-01
      -3.0431455595252188e-01 1.0491730110715280e-01
      8.6735263270492705e-02 -4.8274605714083085e-01
      -1.6185398609199506e-01 3.3438198183431483e-01
      -3.0696917371056309e-01 -2.4165687893193591e-01
      -2.8720767184895191e-01 1.5826080797262540e-01
      -5.4766775568106940e-01 4.1922526225284112e-01
      -9.1387899659366473e-02 2.7629119646370476e-01
      1.7927609198190680e-01 1.3428921967783755e-01
      1.8780747727019984e-01 2.4260376559285418e-01
      -2.2532298261704087e-01 3.5336614304007885e-01
      1.8560598543395848e+00 -1.1865844460976516e-01
      -5.4459296334381464e-02 3.3055569998458428e-01
      -4.6009930771101476e-01 -2.1683561664057352e-01
      3.3016307439138487e-01 6.1505701907989173e-02
      1.5719911433097361e-01 -5.3880642982123439e-01
      2.2271572741180035e-01 -2.9942210487067505e-01
      1.0845039257163332e-01 3.7609400351599993e-02
      2.3958828474598082e-01 -1.8498578783062028e-01
      7.3457046306581775e-01 7.1656711902862824e-01
      -7.0364304558689561e-01 1.9570454881332217e-01
      -3.4545948513886138e-01 5.8065527224755366e-02
      2.1576083195377649e-01 4.7602843282898177e-01
      -2.2318520009385556e-01 -1.1151978831189970e-01
      -2.7225177113124177e-01 -3.4959680432717011e-01
      -2.6776219776749882e-01 1.1781638391138305e-01
      -5.9784485533650433e-01 -3.6990272156172649e-01
      2.1279339413067141e-01 -1.7955162742114786e-01
      -7.2484073176687869e-02 -5.9237795942616259e-02
      -1.3548695912206921e-01 2.2215991158134732e-02
      -1.6329363254654380e-01 -3.1190703923760799e-01
      -6.8667156541607224e-02 3.3647456857821129e-01
      -2.0918424707403547e-02 -4.7032784805294453e-01
      -8.3706047039209253e-02 3.7623208688937276e-01
      3.4337299048914319e-02 -2.4678384379352103e-01
      2.1376990152749370e-01 -7.3762544776000111e-02
      -2.5514819100872710e-01 -2.3735160008812090e-01
      -2.3816211917545771e-01 2.9555877232620786e-01
      -3.4212990630001369e-02 4.5775934175118438e-01
      -2.4094674150526399e-01 2.2415549303119561e-01
      2.7254546065609592e-01 -3.0219513998263742e-02
      -2.1588326097625177e-01 -1.0438555075450252e-02
      -2.2132797170253690e-01 -1.8105530758723018e-01
      2.0175968910466797e+00 2.1146808515463941e-01
      -2.1726041305453528e-01 1.9264047753658603e-01
      5.6503800648498727e-02 -2.8251977908459147e-01
      1.3147997581217452e-01 8.0010532694806003e-03
      2.2039245286834599e-01 -3.7931370228666406e-01
      -9.8721983272230640e-02 -3.4771190569651561e-01
      2.1445297289849752e-01 2.8213044288573419e-01
      -1.2022349122056972e-01 1.1685157606571893e-01
      -1.0748837391540389e-01 9.3195784870309928e-01
      -2.0358412623742594e-01 5.1894366703462413e-01
      -3.6189021346112843e-01 1.4046808035529129e-01
      3.6784281012053485e-02 2.3640449168399574e-01
      3.7485072416980632e-02 1.1282475596524427e-01
      -1.6622437442541949e-01 -5.3667820832608168e-02
      -2.7599991950614761e-01 1.2704703769842896e-01
      -1.7557365493890215e-01 3.3799651658110746e-01
      2.2860610160516032e-01 -1.4227053907694634e-01
      6.2948445505704382e-03 3.6887769771492336e-02
      2.0112696934291624e-01 2.0542400135868638e-02
      -8.4845298828444340e-02 -1.7507520109037278e-01
      1.2651395338656315e-01 -1.7176547743216100e-01
      -3.4325120572620899e-01 1.4290436198676685e-02
      -2.2442917845584193e-01 8.9887370861427063e-01
      1.8345075054058296e-01 -1.3804977943931168e-01
      3.5868379091230515e-02 2.8708106015024626e-01
      -1.6515255922344049e-01 -1.9919920170901284e-01
      -3.3395774941961137e-02 -1.0587362932298619e-01
      2.1434202495380433e-01 3.4050754029414365e-01
      -3.0118078265372783e-01 9.2219949344537241e-02
      3.6899192495584002e-02 1.6764010257466688e-01
      -4.2092787637786386e-02 -6.2246029009528248e-01
      2.9755315144116404e-02 3.3648762817713251e-01
      -1.5225016201352204e+00 4.0073142248536135e-02
      3.0556250245846717e-01 -2.5416254130538546e-01
      -6.3538337044169002e-01 -1.9731818114676786e-01
      2.0638216362464426e-01 1.9114885969085582e-01
      5.6417440023960119e-01 7.6136787964448824e-02
      2.8099492972896301e-01 -1.2523717157947939e-01
      -4.7901919512572944e-01 2.5445584661967358e-01
      1.3752407748206572e-01 2.8218713597933171e-02
      -2.3930447833121335e-01 5.4992092412705396e-01
      -5.4361837453735351e-01 1.9166393753458463e-02
      -7.9718803495223267e-01 -1.0317386911044228e-01
      4.7614761855158616e-02 1.3065826113523568e-01
      1.0390364378616154e-01 -3.5491075360576822e-02
      -5.3543605197333333e-01 3.2533717594751238e-01
      4.3852834922874999e-02 4.8404438223149082e-01
      3.7631660412653409e-02 -3.5580071299355537e-01
      2.9279900258507990e-01 9.0398985837620113e-02
      -2.4527144860909268e-02 2.9378490918887501e-01
      -3.4874648098111138e-01 1.7101608794484963e-01
      5.2880301473149968e-02 5.0040778273586529e-02
      1.1412422595740115e-01 -3.2693702167281358e-01
      4.0411664234562598e-02 -1.0315341223329855e-01
      -2.9112666757862066e-01 1.2422456003249971e-01
      -2.2164976094899141e-01 -1.8560605063071395e-01
      2.3783965307262792e-01 2.1389373117409399e-01
      -1.3675252676447414e-01 -3.6041005480063515e-01
      2.2944657860131804e-01 -9.3818286986775690e-02
      6.7721345532764043e-01 1.9574841693163494e-01
      6.5136589380881293e-02 5.6714695072528104e-02
      6.4886708742354759e-01 1.0885111836524357e-01
      1.0083342359389867e-01 -9.4904821310984477e-01
      1.9151642867473029e-01 -1.0281424792752614e+00
      -8.7002979115146539e-01 1.4492134819670943e-01
      2.4206509050429828e-01 -3.4361783622717662e-01
      -4.5910858487994399e-01 -3.3129255198703139e-01
      1.6746565098700716e-01 2.8563370548136713e-01
      2.4872776307665126e-01 -1.2120130428079195e-01
      2.5203978188479170e-01 -1.7243782137926131e-01
      -1.4311636579038398e-03 -8.4760680913803337e-03
      1.3464123035882178e-01 2.5845225592081728e-01
      2.6812047798510896e-01 1.1480700427934425e-01
      -2.1638466884474181e-01 -4.8868226288929967e-01
      -7.7498416536902218e-02 6.3451543587661918e-02
      2.3310972630530041e-01 -6.9608363635979298e-01
      5.2944445585052322e-03 1.3557231036541892e-01
      -3.5087416887269501e-01 4.1432706365855332e-01
      2.0791487578888179e-01 1.9210029329490055e-01
      -2.5353638578739929e-03 -1.2499666632848677e-01
      2.2636878004059763e-01 -1.2402124508468051e-01
      -6.0481360321852404e-02 4.1080133046244810e-01
      -4.6561622482964876e-01 1.8371735417798141e-01
      -3.7656524752617432e-01 2.4594839256484299e-01
      -4.2633552683126576e-03 1.7889713522262604e-01
      6.2005072484740575e-01 -3.4235255719664104e-01
      -4.8072696827816397e-02 3.3943289286949480e-02
      -8.0916669836296043e-02 4.4775721918530020e-01
      4.1895624148868565e-01 -3.8588226504827355e-01
      -2.9270339789851069e-01 -1.3793325309000720e-01
      2.9553080431200857e-01 1.6997275608683038e-01
      -1.1592805230686624e-01 -6.3352848602191314e-02
      -2.1839684099989171e-02 -2.4743792196771183e-01
      1.0353274352149530e-01 -1.6759271304529030e-01
      -1.1833093558889665e-03 -1.7043889044652827e-01
      9.5545941038881282e-02 -2.9917466388181846e-01
      7.1348941888235129e-01 1.5412735014792281e-01
      8.9410104886547791e-03 -3.7508649509773256e-01
      -1.5016572510618934e-01 -5.5297877433707077e-01
      -1.3605355783625928e-01 -1.2116181693405914e-01
      -7.4651578158618295e-02 -1.0754885193660255e-01
      6.2627462488122343e-02 1.1455719594161078e-01
      -5.2705807118171832e-01 3.0922357031291897e-01
      4.9715888999370567e-01 -2.1979830836792627e-01
      -2.5493386477768182e-01 9.2243667100389448e-01
      -3.3691482246807708e-01 -2.4105833527594028e-01
      -1.7365099189641928e-01 -2.9696277645469127e-01
      1.1958613917801265e-01 -2.4846452378671571e-01
      -1.4985598226520849e-01 7.7415291122288310e-01
      -4.5849734321070018e-01 7.3466330849480774e-02
      5.2711204955526847e-01 6.2719213861597922e-01
      -3.3571852498090848e-01 5.1771961226087715e-03
      4.9921629262482842e-01 1.1115028503391311e-01
      -2.7594708351406305e-01 2.5330641763249417e-01
      -1.9107846746537313e-01 -3.6315763704832429e-02
      -1.5586986700825267e-01 1.4771383046938813e-01
      -1.0325687267931473e-01 -8.2019570758541493e-02
      6.0030483864552042e-01 -4.2832588676524525e-01
      -1.8584631841385472e-02 -1.3073629191914704e-02
      -1.5380445967845360e-01 3.9521287435390476e-02
      5.3569637727500485e-01 -5.9296847278081521e-01
      -4.3926774442606326e-01 -2.6510015297864953e-01
      2.2536962089005266e-01 1.1098483554300298e-01
      7.1335903822944358e-01 -1.0361283321801586e-01
      4.8467841590731797e-01 -1.0218320776936204e-01
      2.0750682079374658e-01 -1.1449713319862329e-01
      -8.4470866480354637e-02 5.4829172341458199e-01
      -3.7113447423537849e-03 -3.1361260122259271e-01
      1.5683457718845069e+00 -1.0592093037711212e-01
      -2.4488565815192356e-01 -5.3834823040483248e-01
      1.8125144775448229e-01 -2.3097878013062872e-01
      -2.1814722175421783e-01 1.7143290049900198e-01
      -1.7627430714563852e-02 1.1944483816319124e-01
      2.3453301403238658e-01 3.8579700073360490e-01
      3.2362489741492123e-01 5.9277528139819402e-01
      1.7033169049977054e-01 -3.5384918040483759e-01
      6.4198769738801842e-02 1.0357481177291386e+00
      -3.8650788183368778e-01 1.5383684318229715e-01
      -3.0563432429766468e-01 -4.2391365869182634e-01
      1.6571982616887507e-01 4.3590921976403668e-01
      -1.0039091020590928e-01 2.8785250080774710e-01
      -6.8461118057953085e-01 8.9416505860633252e-02
      -4.9772985819988977e-03 4.0870086925059884e-01
      -2.7942793792996051e-01 -7.7903764697727451e-01
      9.8406550436500925e-03 2.7156898770506577e-02
      3.8883647409622642e-02 1.0073673741167612e-01
      5.8613387371145596e-02 7.1724538259085757e-02
      1.2780199158624462e-02 6.4521180376416820e-01
      5.1354344862044397e-02 3.9070488242822027e-01
      7.8236091207942560e-02 -9.7635704086969488e-01
      -2.4381954582073673e-01 2.1533276615819741e-01
      -5.6924041743878710e-02 -1.0440983346259608e-01
      1.6214280633220415e-01 -6.6550897199336567e-01
      -4.5400034237801901e-01 2.1171748637312002e-02
      -1.8505940199755758e-01 5.3590737204439509e-01
      7.1119514524220884e-01 -1.1641196464733850e-01
      -2.3014770234293120e-02 -1.0652706791186348e-01
      6.6249215432019404e-01 1.8270055307652650e-01
      -3.6239599403754413e-01 5.2771844953005453e-01
      1.6241704488901643e-01 -2.7803643169055453e-01
      1.6482437483631707e+00 -2.7499549364659670e-01
      1.0371260708967964e-01 4.0069946951305085e-02
      -1.9274419447576732e-01 -4.5401686544643488e-01
      7.0163600496808018e-02 -4.2436494443528372e-01
      1.1445883322938018e-01 4.1976262453481722e-01
      -4.3762805827043721e-01 8.7200613442868377e-02
      3.1469020478799142e-01 2.2942464553413651e-02
      -1.7140148705043132e-01 2.2005898159232493e-01
      -1.7611161950616289e-01 3.1549532844422379e-01
      4.3876807123608773e-02 6.5090211405168352e-02
      -2.0518615738403027e-02 -1.0701627714364720e-01
      9.3844888850177527e-02 3.5489815510759154e-01
      -5.3720302701786855e-02 -7.9746634625783699e-02
      -8.4969589694988745e-01 2.3258155799479885e-01
      2.0826126940558572e-02 -2.0882671632543498e-01
      -3.5264028680740117e-01 8.3289789002748527e-01
      9.7244007028292091e-03 -3.7598602167728333e-02
      -2.0790402941472555e-01 -7.0962871657402324e-02
      8.7332170716189525e-02 -1.2824150262879924e-01
      -6.7604920941449287e-01 -2.4349325282167855e-01
      5.8429636191770870e-02 3.0435476121659955e-01
      3.7596239464561987e-01 -9.2419914848262996e-01
      2.6384764522376319e-01 -2.4839579968278003e-01
      5.2612372297005749e-01 -2.6688227892410565e-01
      -6.3673532882353279e-01 1.4983068743250796e-01
      1.0829296459215625e-01 3.1854855717438346e-01
      -3.5933711280975433e-01 2.1704072348760015e-01
      -3.2825719073716242e-01 -4.7452801878807335e-02
      3.8527188567930276e-02 -2.5271106525684822e-01
      7.0800992823297659e-02 -1.0897883165120727e-01
      -3.2467777213620841e-01 8.3832489932986221e-01
      1.7892127164675306e-01 -4.3810591588232001e-01
      -1.7048789349880618e+00 1.4289779132793978e-02
      1.5364869290157307e-01 4.6610606480762307e-01
      -2.5670829545727691e-01 -2.9555720509203653e-01
      2.5464575129361006e-01 2.2415863000972425e-01
      3.8628067539893860e-03 1.8459864301303008e-01
      -2.5286913839886616e-01 -9.1455525952970310e-02
      5.6907087743597118e-01 -1.0899739361184610e-01
      1.6706506890417766e-01 3.0286314069696046e-01
      7.1696434524975539e-02 -3.0540322864668106e-02
      1.2764470940717590e-01 -2.6712337468109260e-01
      -5.4760276938171440e-02 5.0030052419346427e-01
      1.8202358159146809e-01 -6.7758438381114047e-02
      -1.9474696510650077e-01 -3.3256840077422617e-01
      -1.2694015777949205e-01 -2.4541506374784198e-02
      -1.8551261056839016e-01 -5.6853459947974784e-02
      -1.3646582997345885e-01 1.4182099426102882e-01
      -2.3150355570925363e-01 -4.8400089943746047e-02
      -5.5329267485885764e-02 1.9249256914066956e-01
      1.4481160053986147e-01 1.7197695092336820e-01
      -5.7423927247783790e-01 -4.5487905610654183e-01
      2.5229131475816213e-01 -2.7757684111334069e-01
      -8.5257250818768539e-03 -1.5659260612146478e-01
      9.7207100778834307e-02 1.0020633946983117e-01
      1.1203155008722333e-01 -1.1634131846936399e-01
      -2.0147324029008554e-01 6.0945356958873494e-02
      3.9844413843839736e-02 4.6466482990954222e-01
      -1.3202328215524842e-01 -1.7542690879861300e-01
      -4.7304238853755098e-01 -4.2121790129568931e-02
      2.4042400665686101e-01 7.1848992945701979e-03
      -1.2272224301953888e-01 2.0477166126278462e-01
      -3.8688952321858740e-02 1.6793978483430833e-01
      2.9223821901056540e-01 -3.6549205683587029e-02
      -1.1818274632012313e+00 1.6117894520694820e-01
      4.1595338501223250e-01 1.7378210243858713e-01
      1.1134470956789283e-01 3.9475093521570714e-01
      3.0414957738500503e-01 1.9299399749589728e-03
      -2.1193825582136844e-01 3.6638530970149163e-01
      1.4552728575699989e-01 2.7808051904615333e-01
      -3.7829181620955638e-01 -5.2624230823200342e-02
      -5.7864687437874818e-01 7.0960649026957323e-01
      3.0826300814090490e-02 -7.1538862772124800e-01
      -4.4301518548547519e-01 -7.6382089144554111e-01
      -1.4912849130639363e-01 6.6525972209847173e-01
      2.4669804089531416e-01 -5.3495741264556140e-01
      -2.3998257087855587e-01 5.4357290243433198e-01
      -2.5514846717072859e-01 -4.2096349736786792e-01
      -2.4395225574826496e-01 1.0618773248262817e-01
      -3.0778279877773412e-01 -1.1882245314394972e-01
      -2.5847444420363092e-02 2.1239455361319956e-01
      -1.9740035533997174e-01 5.6162196307025791e-01
      6.2132949101788681e-02 -1.1903018127669043e-01
      1.5530377187654043e-01 -4.4132897123538062e-01
      4.7582721641737613e-01 -3.1576541740624059e-01
      1.3654029590630731e-01 -6.2709624679711098e-02
      6.0254726147268192e-02 -1.0645807842961577e-01
      -9.2751485031552935e-02 2.2739459983220628e-01
      -5.9521349732397921e-01 2.1773716344645877e-01
      1.7951007077371869e-01 1.8804780020236556e-01
      -3.9374271865183635e-01 -5.1548384396978830e-01
      -4.1850693530165097e-03 -1.6692042647344099e-01
      3.5819351643532965e-01 3.4146319783121720e-01
      -2.2070099421501430e-01 1.8552903644192244e-02
      1.9281238749754429e-01 -8.6243734762099261e-02
      2.6634603521628186e-01 -1.2716844678323992e-02
      2.7512634161485177e+00 -2.3460219225640666e-01
      5.9031894938158513e-01 -5.9747690847188312e-02
      -1.3228417480336191e-01 3.4789288075186348e-01
      -2.6311624248405679e-01 6.2091016071906757e-01
      3.3789724830063095e-01 7.9487391675270291e-01
      1.1122299863664706e-01 3.8172089439557261e-01
      1.1805585542037990e-02 -1.9179178573569475e-02
      -3.1031105359048905e-01 -7.3402602730987143e-02
      -7.4403448064529573e-02 -1.0492814892138953e+00
      1.3818906665633399e-01 -3.1935793831110859e-01
      -1.0310250227254986e-01 -6.1605471058271459e-02
      5.2878782312902084e-01 -5.3276486771706066e-01
      -5.3203280621015425e-01 5.9103745907916216e-01
      -1.3321248125626281e-01 -3.6751947938419421e-01
      1.1169844068168748e-01 1.3103788767539509e-01
      1.6665293831812808e-01 -2.8412647885369774e-01
      -6.6310800812936402e-02 5.2852552911183692e-01
      -1.5952670561959628e-01 1.9372366303655036e-01
      1.8146609091328395e-01 3.3842150757649521e-02
      4.1373639018273201e-01 2.8720288849452054e-02
      3.5794974202298868e-01 4.2956528740321215e-02
      2.1913931981938115e-01 -1.5610541832631105e-02
      -9.5014410993970247e-03 -2.5534133290624556e-01
      -1.3042839846247012e-01 3.1019726278172177e-01
      -4.2382842839559276e-01 3.1145551896284029e-01
      4.8456414839765294e-01 -7.2341748142628237e-01
      -2.5956153500215240e-01 -1.1546782141350087e-01
      3.6571319496842380e-01 1.1046347548936633e-01
      5.9645276478857068e-01 7.1939108785576217e-02
      -1.5929383218407381e-01 -3.5209184650659098e-01
      3.3306555800473309e-01 -4.6339849335519973e-01
      9.7516242937177616e-02 -1.3710025187249453e-01
      5.4115283358270494e+00 9.8005971387393948e-02
      6.1845004697700767e-01 -2.9627316040922858e-01
      -3.4819474578187758e-02 3.5562123902864490e-01
      -7.5106105064360140e-01 4.0315880492929679e-01
      4.4991696848094342e-01 2.3867310294112262e-01
      3.2443427589901380e-01 5.3198555722126206e-01
      -2.1346663392146747e-01 1.2593933692909834e-01
      5.8446337469626720e-02 -5.4986939683562767e-02
      3.3339565902569523e-01 -1.2226408531354986e-01
      5.0238635144961874e-01 4.4031432719847585e-01
      -3.9038636771938900e-01 2.0293118082417710e-02
      7.5344697783764780e-01 -2.4113863938214106e-01
      9.4417933233424095e-02 1.0535137276250035e-01
      -1.8863143443115496e-01 -7.2451808884544999e-01
      1.6569091918950676e-01 2.2277262206760373e-01
      3.1979490264045861e-02 -1.5447784701572187e+00
      -3.9455395820267081e-01 4.0008330656347707e-01
      -4.9062267143808364e-01 7.1968555487854968e-02
      -1.9623132648650674e-01 -6.0433887075805118e-02
      1.4442917930579124e+00 3.2403970419815142e-01
      6.9637470666145895e-01 -4.8761053000094179e-01
      -2.5762941048915083e-01 3.9870267333048132e-02
      -3.7947743753222840e-01 -2.5306962617630974e-01
      -2.6928386135719867e-01 2.1412698870870511e-01
      -5.9760542996074351e-01 -1.9525098867419025e-01
      3.4849584962137020e-01 -3.2215389768419078e-01
      -1.8889450379482448e-01 3.8507455454651901e-01
      5.3623658586978729e-01 -1.6197550379729736e-01
      -1.8425723798279026e-01 5.4077698987469824e-01
      1.1831560643995221e-02 -4.8776995059006095e-01
      -1.3305149783087822e-01 -9.6195896835650041e-01
      1.5153769434544270e-01 2.2184620278264966e-01
      3.9528581736608301e+00 1.1644513178405572e-02
      1.7438928936107986e-01 6.4710537905404292e-02
      2.8970801562515680e-01 4.8796647788054107e-02
      -7.2690958144271817e-02 2.8348658965139367e-01
      3.0521361854679430e-01 1.4769547493448292e-02
      4.7277319574741272e-01 -2.0391720802737451e-02
      -9.3850635977516272e-01 3.4647141373833779e-01
      -6.6643014222345642e-02 -3.3976990700404230e-01
      1.7279338770638308e-01 2.9042519211932483e-01
      5.6075009150629496e-01 6.1848436511063243e-01
      -2.6324115489766603e-01 -5.6104495493956763e-01
      1.0624287560810676e-01 -2.7187758140989843e-01
      -1.4601386239357633e-01 9.3729602393706354e-02
      1.1517071644254862e-01 -2.8468361081155191e-01
      1.9687744981387709e-01 -6.6062477183607637e-02
      -4.9307606645999996e-01 -1.3349751877969287e+00
      -2.9859620593052166e-02 3.2153356376053699e-01
      -2.4781640178546738e-01 -3.4206288396635764e-01
      -1.4612465868897057e-01 -6.0360957031644395e-02
      8.8697955239484727e-01 2.9550302124342170e-01
      2.8434711401661300e-01 -1.7564837140782472e-02
      -1.3202883442586552e-01 8.9745969014922988e-02
      2.7134694478183297e-01 -3.5458473919863343e-01
      -1.3688860708188783e-02 6.1083177102590447e-01
      -3.5657002529911097e-01 4.4853945034976660e-02
      6.7377766208658196e-01 -7.3282175484197731e-01
      -3.9299498365886204e-01 6.2834510725911577e-02
      5.7098623786179969e-01 1.3971927958851157e-01
      -2.9294197058973465e-01 4.1768430577244153e-01
      -4.6036870204696420e-02 -6.8596226398511173e-01
      7.5345743224381520e-02 -5.4059758615990938e-01
      2.5755065370894642e-01 4.7964141436905755e-01
      4.0332740700563008e+00 1.4878823498366664e-01
      -1.1969446881023911e-01 3.9953710346725729e-01
      6.0376630393875719e-01 2.3536961977492801e-01
      4.2405820585462212e-01 1.2473523077963640e-01
      -5.5500617579438638e-01 -2.5947810853931291e-01
      -3.0341841337073916e-01 5.1077642377171210e-02
      -7.1662348042078794e-01 3.1934054961394953e-02
      -3.0031693758401162e-01 7.8496280138093358e-02
      4.9354996753090408e-01 -5.0660909159760770e-01
      3.8844669193062509e-01 3.7039585683936649e-01
      -5.1214230696643959e-01 -3.7614326212175647e-01
      -1.2184018284809073e-01 3.4747267790999825e-01
      -3.3990088355727122e-01 -7.1031791158174717e-01
      4.4259370685731980e-01 -2.8756288894068399e-01
      6.3903699464221442e-01 5.8884473941243243e-01
      -4.5658077815790760e-01 -1.2980326732130945e+00
      -2.6728246955315815e-01 -1.7532020461876521e-01
      -2.7191461347114099e-01 -2.1314913721303572e-01
      -5.1770543314053979e-02 -2.8168374190587442e-01
      8.2046585006732042e-01 1.7599993178161732e-01
      -1.6556930753823865e-01 2.3014849076084193e-01
      2.1551397816543319e-01 4.0274149636567513e-01
      2.8159021521479560e-01 -7.7468184400795848e-01
      1.8496892429275089e-02 8.8576779331257516e-02
      -1.6744468584841760e-02 1.1102607352646494e-01
      -1.2807173146091624e-01 4.9287923347903217e-02
      -7.8858101406097114e-01 1.7972527182308984e-01
      -7.5048232284144234e-01 1.9533891313835514e-01
      -4.8587079495386098e-02 -9.0152186421729175e-02
      -6.0713061485365394e-01 -5.0009994004344982e-01
      1.7453303451857910e-01 -2.1181451212875430e-01
      2.3087187611424487e-01 2.2814907106996532e-01
      3.5811651575007115e+00 2.5325877198162913e-02
      -2.9752972663817839e-01 5.0193423010821092e-01
      1.3502388615898753e-01 -3.3562418807528094e-01
      2.3731652945430448e-01 2.5106779394121859e-01
      -8.7648667413901482e-02 -6.1069135110467875e-02
      -3.0508817029622711e-02 -1.4354031851289045e-01
      -4.2877633715966873e-01 -2.6728519310653703e-01
      1.8448081114513279e-01 -5.8739703668375276e-02
      4.8428721746939946e-01 -3.6191160480841778e-01
      4.7394321107444182e-02 -4.6586172112795676e-01
      2.3560940913607401e-01 -2.4260271107808737e-01
      5.7279773738547124e-01 4.8606322561936449e-01
      -5.2730688340008436e-02 -1.5384881958171412e-01
      1.1519608516529659e-01 -2.2384049943527684e-01
      -2.8705439912837899e-01 1.8065688376986422e-01
      -1.2494412444999553e-01 2.4327374088433254e-01
      1.8414598944060986e-01 3.4665458428584650e-02
      -2.2121995627723959e-01 3.1944042522395605e-01
      -2.1978708766817726e-01 -4.1268220496002712e-02
      1.3996186693292306e-02 -7.0050243464125098e-02
      -8.6694690547869640e-03 -1.3538612633596891e-01
      -8.6598076860552028e-02 4.3449636357625365e-01
      6.0145933029014842e-01 -6.4910486389669925e-02
      5.2257814884153841e-01 -5.8555523527106945e-01
      -6.1752241955739584e-01 5.5339616867614727e-01
      6.0673735552961716e-01 2.2895833103313576e-01
      -6.1159414167387238e-01 5.0037451785185934e-02
      -4.0029000873349102e-01 1.9104629949891594e-01
      -2.8902273493982635e-02 2.9282784932057848e-01
      -4.5936465726908925e-02 -3.6499018436129327e-01
      2.4365392264147009e-02 1.6820998382063015e-01
      -9.5305736007588238e-02 2.9858844337801327e-01
      1.1917406637542451e+00 1.1544472892677314e-01
      -1.9573410534835387e-01 5.9063378690352863e-01
      1.3722890636387017e-01 -1.9406683477798142e-01
      1.6348125463789673e-01 1.1812793922214861e-01
      1.1009360992312514e-01 -4.4335755446715447e-02
      -4.5920585747666515e-01 -6.7455504945689262e-02
      2.0860430751590323e-01 -2.1920629007610959e-01
      1.9173200681948401e-03 8.2699091560688706e-02
      -2.9635005199344688e-01 1.0271692389102781e-01
      -5.8489459931451347e-02 2.5466996188625363e-01
      -3.2549005028455393e-03 1.5555582453335196e-01
      1.2877639483253217e-01 -5.0903931035989919e-02
      -2.1056877350598406e-02 1.7270977218358943e-01
      -2.3488429798858609e-01 -3.8331298058957142e-01
      -3.5107525079354712e-01 -5.0120999706018854e-02
      -1.8391875195270996e-01 3.4933011811342829e-01
      1.4499230870514138e-01 5.4390357344664991e-02
      2.2316520324434382e-02 -2.6265393604046927e-01
      1.8027229673493525e-01 -2.7040314365954950e-03
      -8.2303952559685742e-02 -2.3915008209406100e-01
      -2.4834203983902993e-02 6.8461748458194568e-02
      -4.4504794299569300e-01 -1.3052105256405644e-01
      -2.2510145324756406e-01 -7.8518706754109574e-02
      4.3449076856310376e-01 -2.8819332567801081e-01
      -1.6193538769207247e-01 2.8969194521164648e-01
      3.1640574064466742e-01 1.6855817198554160e-01
      -1.2720775545363772e-01 -1.1200010025293379e-01
      -6.8343053696961098e-01 1.3670264764627768e-01
      -3.8904843631791863e-01 2.8229039716832305e-01
      -1.2081082224953543e-01 4.5209201754335328e-02
      -2.2881790734186463e-01 1.3099538948214678e-01
      8.4182788180002157e-03 7.3189942090192903e-02
      1.6754900098038656e+00 1.1467777909993638e-02
      -3.1424955480032785e-01 4.4026460226568925e-01
      -2.1826795631615992e-01 -2.6241092302233288e-01
      1.7911595735475672e-01 5.2890405515761865e-02
      5.6007294969064114e-01 -1.6924167430785286e-01
      -3.1070425312759781e-01 -1.0247320994291244e-01
      -2.6112326300292010e-01 -1.4203458561928303e-01
      -1.7230368350219658e-01 -4.4495816675290273e-01
      -3.1381128915846918e-01 -2.3997264871144561e-01
      -1.9741490940356685e-02 9.9388873848223119e-02
      -2.0965956442971884e-01 3.5858080489870950e-02
      7.5395225435563165e-02 -2.4682427291390661e-02
      -3.2234397536682391e-02 2.3250117184623709e-02
      -2.5276777082095095e-02 -3.6081894224160173e-02
      -1.6200373970657353e-01 1.1506822963291799e-01
      -9.8108042686629440e-02 4.2696336751654634e-01
      2.3717769294612116e-02 -3.9556231516464438e-02
      -1.0541691682019355e-02 -5.4177942371153115e-02
      -1.2742350026794380e-01 -1.6327421945131068e-01
      -3.6855383813244616e-02 -9.5045693224725655e-02
      3.7410009202979697e-02 -3.2611845893606599e-02
      5.2886706509924573e-02 -1.0003471715811686e-01
      -2.1090983805740685e-01 -1.9232588443231383e-01
      2.2203898610278339e-01 -4.2948985241345716e-02
      -1.9157640785718388e-01 4.8100026252911826e-01
      -2.2829906946260253e-01 -3.7078078075168316e-02
      -2.4941854270023467e-01 -8.6432593358321777e-02
      -8.8311932759685863e-01 1.7662206686643361e-01
      -9.9612466346592668e-02 3.5152530305949531e-02
      1.1727496697375463e-01 2.0727365814818366e-01
      -3.0400780115294213e-01 -6.4819921748672210e-02
      -1.0135206800213949e-01 1.4966002974819057e-01
      4.3299383462090892e+00 9.5953235536160100e-02
      -4.9497820305122474e-02 -5.4219749181651372e-02
      1.2258314311090585e-02 -3.2968483416222327e-02
      -1.5364651009183544e-01 4.8388038883849921e-01
      9.9056183569460510e-01 1.0382924608153550e-01
      4.7916046801481676e-01 -3.6131464278892889e-01
      -3.9375254970451101e-01 -2.4654783924037132e-01
      -2.0933268905518776e-01 -2.5770459809707752e-01
      -1.9735191198635543e-01 3.7429369753161257e-01
      -7.9040685108938491e-01 -6.5836448224832755e-01
      -6.4939505874982051e-01 8.4589258115892366e-02
      -4.3366880340230951e-02 5.0178685287349152e-02
      -1.9742312430780373e-01 -1.5309539853008081e-01
      -2.6808178802340504e-01 -1.3278255730149693e-01
      1.4808237333338659e-01 5.3130639279479575e-01
      -5.2097577267373213e-02 -5.1833819510641310e-01
      4.9979591030097315e-01 3.5070182221156621e-01
      -3.2911662355644261e-01 -1.8283283617698234e-01
      -6.8329161077275835e-01 2.2114994002998597e-02
      1.3061578539750188e-01 -2.2342439613047443e-01
      -2.6887634796749421e-01 -2.3412127148276801e-01
      1.1605709918297417e-01 -4.9874518186400839e-02
      -3.4128580557378696e-01 1.7985277777664080e-01
      -1.6679459518977233e-01 -3.3309212610534611e-01
      -2.2320388041181025e-01 4.1732030151448557e-01
      -3.0242262233655809e-01 -4.0017486552049264e-01
      -6.9482256377312965e-02 -4.2752421959486343e-02
      -5.2487659744053325e-02 1.6099698798914153e-01
      6.0336283650593381e-01 2.3772693706192019e-01
      4.4257377047786833e-01 1.8534964374361573e-01
      2.5347821443615717e-02 -7.2774627133676872e-01
      -2.6751470741345942e-02 3.2915656896583600e-01
      1.8404507414975964e+00 1.9158969920368027e-01
      3.2548746065327488e-01 -1.6340095128913715e-01
      4.5136418096174696e-01 -3.1781000837080425e-01
      -3.2250278374513552e-01 -3.7257790912119515e-01
      1.2787097951140453e-01 -4.0035906162319890e-01
      -2.0061815975856420e-02 -1.7400855347979344e-01
      -4.9813952693080799e-01 -1.9919889547277501e-02
      -1.2672509763336418e-01 -2.0145737259831642e-01
      3.2349613469174970e-01 1.0379092675870791e+00
      -1.4771356155348622e-01 2.9845804746058409e-03
      -2.5681633758179617e-01 1.7309300792197627e-01
      -3.8417190447150062e-01 1.9793762906037438e-01
      -2.3827332381364860e-01 -1.2156349880212813e-01
      1.6271459456571595e-02 -9.6292106632384064e-02
      2.2606160983156254e-01 6.6011597740511102e-02
      -3.1730415385895250e-01 -1.6791243294242922e-01
      -1.4654191071373562e-02 3.7342432895839378e-01
      -4.1564152725570631e-02 1.8474142059512036e-01
      -2.4178846687170127e-01 1.0898184107408718e-01
      1.2280570214089293e-02 5.7542237974926372e-02
      -1.8829921087967946e-01 -2.5022692752445896e-01
      1.0480143888796010e-01 4.9683089046468498e-01
      -2.4520244220543320e-02 4.0649582689659935e-01
      -1.1593399127377174e-01 -3.7561852558727332e-01
      2.8359723953126703e-01 -2.2980809359402590e-01
      -5.3466040401681503e-01 -4.3006118935352372e-01
      3.0926230385885428e-01 -2.8758799366703802e-01
      3.7988759996252153e-01 -4.0645821512797643e-02
      8.1185438026800769e-02 5.7064529230970190e-02
      1.1981102718474539e-01 -9.8872016790825246e-02
      -2.3812683252878658e-01 -2.3946946026371396e-01
      1.8161856171874741e-01 -3.3131568487821461e-01
      -2.0001235474341025e-01 -9.1792484974204613e-02
      2.2968141537037412e-01 -5.9236147429743369e-01
      -3.2608299728512125e-01 -4.6297805001380260e-01
      -6.7189401223135048e-02 5.0737113365338267e-02
      5.0750809752301385e-01 -4.5509051674421500e-02
      2.8353017266365188e-01 -1.3885552597533682e-01
      -1.9402083116243143e-01 3.1543760960503681e-02
      4.6023450392790995e-02 9.6690450611440507e-02
      1.9315156633773173e-01 3.8462871876094301e-01
      -2.6790962127911100e-01 1.7441429166913318e-02
      -8.6413994829817864e-01 2.1304028821256615e-01
      4.1803825813565521e-01 3.4655230678573012e-01
      9.8602356793514936e-02 4.2154344796464065e-02
      -6.7172661316242610e-01 1.4087582847028016e-01
      3.4593271050032509e-01 4.8856066676475396e-01
      -9.8317139613918206e-02 -2.2273583902003402e-01
      4.3817737719969746e-01 1.6963694039621152e-01
      -8.1635674375067205e-02 4.4671348275005185e-01
      -2.7960825115431454e-01 1.9073189900649171e-01
      -5.6142322824362587e-02 9.4279872837094922e-02
      -5.7677272129994094e-02 -3.2699878131808580e-01
      4.8700503314751759e-01 -1.4174738770283515e-01
      -7.7051082179292754e-02 1.3079984036057765e-01
      -1.2673800337163355e-01 -1.5265462750578881e-01
      2.2600304081106540e-01 1.2623653633955070e-01
      1.3188548847557813e-01 -2.4634194407371812e-02
      -1.1888926286602433e-01 -1.7763527681689689e-01
      3.1029891152616534e-01 2.6227936079540731e-01
      -4.3791321605702933e-02 2.3056093987546469e-01
      4.3689428880109887e-01 2.0058898762455812e-02
      2.8257108768669115e-01 -9.4741827180424021e-01
      3.7351937282419229e-02 -4.2827558127526077e-01
      9.5544363716414082e-01 -5.9294968376573512e-02
      2.8425015994952174e-01 -2.6170591630748691e-01
      -2.3912538171902928e-01 -7.1857797876873691e-03
      6.4939008086186190e-02 1.5228737995971786e-01
      -4.1342137197058532e-01 -2.7633708342861391e-01
      -2.4192480326512521e-02 3.1939958194948534e-02
      -3.6511734235686361e-01 2.1764203400765170e-01
      1.1836185416854382e-01 -6.5093335658387930e-02
      3.2485777136752193e-02 -1.5888839558706649e-01
      -9.2591957589513968e-02 -1.6509840703205708e-01
      -2.2252136438131562e-01 -1.4270754854856812e-02
      3.2722976399034603e-01 1.9215146538546465e-01
      6.8355141404157604e-02 1.4259281610802682e-01
      -6.8733211730162447e-02 -1.2554403867317962e-01
      2.5908311127137054e-02 1.3423421358689507e-02
      -2.2219760919347697e-01 1.6041844577528633e-01
      3.0659478220203679e-01 2.6093157389912874e-01
      2.2160862295020473e-01 1.4228821338235934e-01
      -8.1416441437867110e-02 3.1417418437705236e-02
